solver_type L2R_LR
nr_class 2
label 1 2
nr_feature 25639
bias -1
w
0.1230287776217076 
-0.05463366315925072 
-0.06803183157786907 
-0.1280094163573904 
-0.302592537259118 
-0.151574121514008 
-0.09184818364489719 
-0.02450876474431592 
-0.03800867282417261 
-0.05503907493452033 
0.01382322036280449 
0.0862669786018116 
0.04066169046928749 
-0.005820012848736286 
-0.08430286658478076 
-0.07055294287277994 
-0.2054552174858843 
0.1193617570369277 
0.05615371969758423 
-0.07097377414507494 
0.03631226987454558 
-0.01745091991484378 
-0.03259747281637721 
-0.02634480825367622 
-0.138379461826723 
0.01589846034659891 
0.0183520419396089 
-0.01152825464176451 
-0.00900532160712886 
0.06553062654841267 
0.00930526072690545 
-0.01175212848079694 
-0.05611484778941348 
0.07275747551455986 
-0.02025982812471486 
0.1961465703917884 
0.0001438491238091161 
-0.01395643336831441 
0.01411196019077555 
0.01065444803615852 
-0.003518548745584845 
-0.1140519934723732 
0.05866489460308931 
-0.006160270255316034 
-0.05591365901712846 
0.0009857982215682303 
-0.101022017141578 
-0.06306974646345979 
-0.01949153136352161 
-0.08656998935548868 
-0.01967596541618287 
0.08816549128788491 
0.08238878319997943 
0.01951818430330384 
-0.006255738401066097 
0.007043647671676115 
-0.001238791203415715 
0.008763591867193393 
0.06217207480422243 
-0.006476790093347958 
-0.05486326738874861 
-0.04345310887877771 
-0.03401221409148681 
-0.008155777042181036 
-0.002916858414969767 
-0.007585080298047341 
-0.03762495916894667 
-0.1205608935817824 
0.05470002461662651 
-0.1186846409321797 
-0.168547832153016 
0.02534446461092119 
-0.003227636397661836 
-0.09960632388040318 
-0.006646738516148072 
0.006235374399791788 
-0.01394300647828681 
-0.09502935246483103 
-0.0540479463365986 
-0.01239346129531911 
-0.002205881092373555 
0.06368345155633937 
-0.008530049778594671 
-0.009239406146250736 
-0.06025933889086251 
-0.05356518685822286 
-0.02844682540709908 
0.0585867233973327 
0.04833418307725741 
0.04397696746417348 
-0.09222374955553621 
-0.01064853881557651 
-0.04912361000059692 
0.1377531959340154 
0.002801305067023696 
-0.1502808983707795 
-0.005660148214775625 
0.1360949376191407 
-0.02437948202643395 
-0.005924359299526965 
-0.006979321304833635 
-0.0391523369036464 
0.04792354343867222 
0.01730794254478543 
-0.02359222846104762 
-0.002632435349158605 
-0.01695023898647561 
0.2690347232839837 
-0.01048299805473053 
0.001922235510091159 
-0.02240263954385018 
-0.005107286762366649 
-0.04503351463582623 
0.02102731456972965 
0.005197805168861413 
-0.0753157593098801 
0.09474548034562978 
0.004891843768405356 
-0.002221438967996605 
-0.01375334037797456 
-0.03193584685034559 
-0.08341179132849261 
-0.001242308472486482 
0.004165312194517216 
0.03899517050318542 
-0.07992379341954672 
0.02858839394787048 
-0.008835885422994636 
-0.0214242988947495 
0.006634121460448401 
-0.0162373391949439 
0.04889845158976287 
0.02907460911675575 
-0.009937508863082931 
0.006985502256108151 
0.00600830467045915 
-0.005302670868525032 
-0.04124013446891951 
-0.005974253453251327 
-0.008037804420827794 
-0.01961562147663487 
0.0372645769947986 
-0.005647775392170982 
0.04550692523642781 
0.02511089478585735 
0.004624616980285246 
0.01251314627839261 
0.1481212226409743 
-0.002888177395889143 
0.006037061859965721 
-0.04097351725358926 
0.007036090929273146 
-0.002039701124187931 
0.01644603813419988 
0.002901631622905654 
0.008772100974381318 
-0.00521821771178148 
-0.002383349312729178 
-0.007500091141821925 
0.1050595620081071 
-0.04520628618019364 
0.07465477816017957 
0.0385413869766994 
-0.02349607954946374 
-0.02267156968736049 
0.01507514514404607 
-0.01185921734587251 
0.008633238003374795 
0.02556745883233412 
-0.007773535457872215 
0.004888178888078557 
0.09004467603496005 
-0.03820760802505684 
0.00788941281521033 
-0.008298264895273265 
-0.004444026292113431 
-0.04337661361392497 
0.07132204468631349 
-0.03123855686710951 
0.01564806455630656 
-0.01241933028259763 
0.001199906814460428 
0.01068726290793079 
0.001266651778646218 
0.001266651778646218 
0.001266651778646218 
0.001266651778646218 
-0.001500497386419884 
-0.04549018486429854 
-0.02425462711863466 
0.009278371556159452 
-0.003298532106274712 
-0.003298532106274712 
-0.003031206193734586 
0.05750398671780978 
-0.001572321580916412 
-0.002852473541853239 
0.04701260720793886 
-0.005990560164728596 
-0.005212290105320466 
-0.0389601496945065 
0.004993599260812529 
-0.008153882682715044 
0.01666783786886461 
0.07513634428958628 
0.02534514656366162 
-0.00165495417004343 
0.002726061238703848 
-0.0008816509673006916 
0.006856796084862777 
0.01535307676058372 
-0.07367749653314126 
-0.01782005806177089 
-0.03814313555709529 
-0.0076294647399301 
0.004384749407328994 
0.02904259880250015 
0.05222208330778985 
-0.01222501508467571 
-0.01318149268986646 
-0.004315642044057359 
0.007952656369571267 
0.04913283131916496 
-0.03712083098901764 
-0.01235644025149137 
-0.00470260873222026 
0.01037172868305113 
-0.009423939300831177 
0.008660571453897648 
-0.02394229241435549 
0.005145544747795725 
0.01825678940084083 
-0.01048739981151181 
0.01413407654552693 
-0.006968766174511191 
-0.01297243557813324 
-0.001516915912793056 
0.001963613671312257 
0.001601684384012198 
0.0147847403278535 
-0.01000025949747457 
0.0005292624161388063 
-0.003807114554125663 
0.03515989465896958 
-0.0441687913421473 
-0.03401412848897459 
-0.0008606162142748359 
0.1040929334439884 
0.09579990918259648 
-0.009799975733674278 
-0.04163801647034236 
-0.02348796864066901 
-0.01729373960698704 
-0.02961129378413109 
0.01931606955703944 
-0.04865068152813541 
0.02294636501232383 
0.01884969041054652 
-0.0002248603934818662 
-0.005701973948555404 
-0.007248144864846707 
-0.002946192945505822 
0.02315544684695405 
0.02802543694436361 
-0.0181217123305092 
-0.01200308681252049 
-0.02092158440592284 
-0.007695101512749383 
-0.003504511273479357 
-0.009807855137208079 
0.05287023703519094 
-0.02862249895751683 
-0.03131920277033401 
-0.06033056027645993 
-0.005637291381822982 
-0.006930697512348102 
0.007962621351887357 
-0.002526315271363375 
-0.006571722923327011 
-0.007113011915414141 
-0.007166170250747673 
0.005713445276940534 
-0.002558697353450979 
-0.04348635286460787 
0.003678178593876157 
0.008811377715015067 
0.05918970152862366 
0.01978926534958483 
-0.006624558797731391 
-0.005492984824329377 
-0.05697757539496936 
-0.01698417537795401 
-0.0338054140708274 
-0.02922776914465309 
0.009872040484875831 
-0.01084092631083772 
0.004308676481646799 
-0.01504322188300577 
0.00965515647018755 
0.02071668442636031 
0.004226297022778323 
-0.009434040899655855 
-0.0414285926996768 
-0.00711937345762459 
-0.02214791047329889 
0.004713416321769359 
-0.007488297444214449 
0.1049391679096868 
-0.008000887201058493 
0.01317136978588849 
0.1070224390017112 
0.03703882163534654 
-0.00770172017889722 
-0.07269208465214957 
0.009056309893679917 
-0.01340152990430729 
0.1789191418622828 
-0.02834378698347345 
-0.05028822218947213 
-0.02299613176773294 
-0.04221918482397771 
-0.004300319684745613 
-0.003368421239918284 
-0.01818593588749074 
-0.004087548024608323 
-0.03873217950464895 
-0.01284772088892779 
-0.008093828648797949 
-0.002012203728446325 
-0.01832910825130192 
-0.005624958191242336 
0.0148436912823296 
0.02127170060347157 
-0.007194271946967374 
0.02495966231789729 
0.08404731515875002 
0.02124355098765928 
-0.01076241891256746 
-0.08992702930655082 
-0.0147616263051846 
-0.02057480505299791 
-0.003076157611146122 
0.01801276526770607 
0.01140098143108763 
0.01846037528459688 
0.004451883828089914 
-0.01109694285254112 
-0.004951373024278112 
0.1058748573463478 
0.09620795816103353 
0.1030309717074304 
-0.01019169108537097 
-0.006134842579089042 
-0.03881884267757783 
0.01307015985518645 
-0.01516330007249786 
0.003952817316623403 
-0.04486910062681847 
0.0427930289849548 
-0.004992149266688035 
-0.03110574193689335 
0.01537710660996288 
0.00332584197220934 
-0.02842596064289063 
-0.01224957565147718 
-0.030669805236037 
-0.0206649931176476 
-0.01708189249808596 
0.02127461616255971 
-0.0001696026675508227 
0.03973541465205124 
-0.01519774064976369 
-0.0002715747322393687 
-0.01119339692127553 
-0.02060569710348548 
-0.01061748324931908 
-0.005827532336094547 
0.01313617271615171 
-0.01559181529559026 
-3.594993850095175e-005 
-0.008789676906389661 
-0.01856299732397026 
0.004823804808198028 
0.01421563485755041 
0.001966743328357763 
0.02155639885190445 
-0.005220543290549974 
0.07104258457179256 
-0.004991510545026984 
0.005248513242059545 
0.06460071026678568 
-0.01235690418208286 
-0.01309380511174707 
0.05378379143746667 
0.06511227956175865 
-0.01373679093111436 
-0.003299542858492438 
-0.04299063227592615 
0.02154997357499225 
-0.01959798446578054 
0.0159528504136335 
0.0001953022886403072 
0.009584308952086456 
0.01475856009446424 
0.001497981406637972 
-0.03871330048126291 
-0.01182159005860316 
0.002975872712428707 
-0.001700578957012987 
-0.005405975829031866 
0.02756547305078455 
-0.02396020943190679 
-0.004726992200325591 
-0.005470245734221545 
0.004294411791054278 
-0.001522955871047504 
-0.00655495836744461 
-0.03212198388544788 
-0.007747070831700683 
0.01097307764926143 
0.003854905319627866 
-0.004075536326492105 
-0.06409365402098222 
-0.02575024113427111 
-0.02753430061705004 
-0.004471733308980571 
0.003250491478554272 
-0.01533806977495211 
0.004437804579690356 
-0.02550846670647088 
-0.005129103352480907 
-0.01828020855748572 
-0.01044509719545021 
0.05205673370313117 
-0.01460176832168091 
-0.003953546231753746 
-0.02186504518337629 
-0.0315832601588858 
0.005634002437711815 
-0.0006633535292709981 
-0.01166899380763709 
0.02302168691620178 
-0.03729126913123486 
-0.002847088790154893 
0.01591163797303527 
0.009242926941401932 
0.004377603011224058 
-0.002511145331529662 
0.01249520693270314 
-0.0003001404105097969 
-0.001607189675306443 
-0.006040839759758041 
0.0304276110515505 
0.007929604828545827 
-0.05642625752007108 
-0.003186555369461684 
0.02271028442075651 
0.0007741494628600411 
0.01933998749399591 
-0.0002408623345032805 
0.006529121341172233 
-0.04083131183694443 
-0.08085545903458466 
-0.008772920606226222 
-0.02487061632940812 
-0.007991367217391809 
-0.002606865829305996 
0.02723127263347267 
0.00902138662968747 
-0.004557310726544119 
0.003050864845518576 
0.00800341200222893 
0.01372937764622135 
-0.002269777023252221 
-0.01185386817541419 
-0.00486123446472554 
0.003862467540796773 
-0.06147520697336464 
0.00725693636839948 
-0.004607743962747183 
-0.01613517197489471 
0.01181480984466018 
0.008620798046965347 
-0.001170227582348373 
0.0530202742763544 
-0.003885604608706678 
-0.01477906691306326 
-0.02622979392094138 
-0.004917356699869552 
0.009326147331042766 
-0.006518838323308854 
-0.0002560438549799281 
-0.0211793699160005 
-0.02133022484549051 
0.0128612060901959 
-0.01430135894281389 
-0.01689937394955317 
0.04251436627732161 
0.007386431009308799 
-0.007993639840112731 
-0.02036853486847651 
0.03474681274686384 
0.03951523328764642 
-0.04652377460279911 
0.01897957592904225 
0.0117335503985388 
0.03348274456417474 
-0.00883332416315644 
0.0227856094363991 
0.007786507846631148 
-0.01280084717185762 
-0.07694010424494543 
-0.006764786770074694 
0.005911667560328546 
-0.01305116625307435 
-0.008945981999249428 
0.001114618081845286 
-0.04956067390730131 
-0.005191005685733442 
0.009238273120772847 
-0.05924436878853651 
-0.01466858220933497 
-0.008058215997832198 
0.03134405133672588 
0.1118993421929124 
0.1075005134276185 
-0.001902567005987145 
-0.0009443244185460378 
-0.005116611404467104 
-0.08142842645021525 
-0.01150237404048858 
-0.01017796394001553 
0.006114444726579678 
-0.03617445235980209 
-0.002024089998218379 
-0.02230681337147111 
-0.02524282551084843 
0.004200986456548221 
-0.02937115794898176 
0.006772581938125973 
-0.006489615070025479 
-0.004447094181540178 
-0.0194311362482583 
0.03315101571124734 
-0.005481843420754865 
0.0265253995416931 
-0.01276254120599461 
-0.001998748576252837 
-0.0002705574399403382 
-0.007982496390446719 
-0.008900763367327173 
0.003159215670366836 
-0.0223907914174676 
0.00471023911294579 
0.02416244851053286 
-0.01819196560468824 
-0.009148212651357509 
-0.01583202738179268 
-0.003950295912273449 
-0.04131985395534782 
0.07071570121284125 
-0.005368067056999423 
-0.006846327913001113 
-0.04408081245082621 
0.004324388111000778 
-0.001377957198017009 
-0.007648807773676998 
-0.02873082878583107 
-0.02302517991107215 
0.06421384219291719 
-0.006250633775026215 
-0.001500969782700219 
-0.01447134069775868 
0.003580155466997722 
-0.01770012633743066 
0.001576688276506705 
0.0005374681310946757 
-0.008945918641814361 
-0.004332372264301495 
-0.03902313999946172 
0.02336289275181445 
0.003208880675409987 
-0.003755828346891322 
-0.03615292257011515 
0.005736472581084387 
-0.006335648811739852 
-0.007138950634474286 
-0.01022537354275708 
0.006800085041753233 
0.06784122790514136 
0.01925906953209174 
-0.002317199046790063 
-0.02003777182063503 
-0.001630340909561543 
0.01997801353608237 
0.01597132520971357 
-0.01097881298984886 
-0.02263013142092282 
0.05743753726162666 
-0.01415245448560529 
-0.006221097537190668 
0.008350032347645586 
-0.06491416509422054 
-0.0132737839207782 
0.03181461216675798 
0.0006968893996507204 
0.0232885174484999 
0.001099406836895505 
-0.005936494498506441 
0.00639188104908112 
-0.003218857319928362 
-0.03011607030649075 
-0.01562549294717822 
-0.01026298454139098 
0.00732160260243671 
-0.01721857604466635 
0.004398009501974164 
-0.001285373851307928 
-0.01232695720161282 
0.01814909901777958 
0.03253382363940754 
-0.01071771266551972 
-0.001844943115500923 
0.005350343840090953 
-0.003730997722508759 
-0.0042225056136142 
0.1509567786022541 
-0.003055375559607155 
-0.001110431005971925 
-0.003919876028449197 
-0.001110431005971925 
-0.01062931267150086 
-0.004658601304360416 
0.03122084537515695 
-0.033470776394239 
0.001346644269277562 
-0.004955808535066894 
-0.01238684651890919 
-0.03040916219573174 
0.01776608050338488 
-0.002270986542672329 
0.01145447532890099 
-0.00437961984337708 
-0.005437529317851159 
-0.006166662131843801 
0.0004107515511639538 
0.08486913091019759 
0.003027157875783552 
0.002019176778002966 
0.002417666693150873 
0.0001195139864308452 
-0.00170952768056925 
-0.01213598228570741 
-0.0002056973027721892 
-0.008531216587656919 
-0.001924506701447895 
0.04378141530899534 
0.01845677174318755 
-0.0110493898074459 
-0.009249988374526312 
-0.005762549086085502 
-0.007405619944225397 
-0.01524390766311807 
-0.02800799333870789 
-0.01488934182011474 
0.05915656925155204 
-0.01753059740914214 
0.004573302103941458 
0.003125182472847043 
-0.001769727452486719 
-0.006423898559037475 
-0.00700734823826262 
0.002096426449656598 
0.0001339451974921279 
0.02095258962840516 
-0.002420993681171328 
0.0009200081426141056 
0.01912510942250786 
-0.01906636718315046 
-0.01078786089023531 
0.001659262345887473 
0.02184268517264901 
-0.001804398218109127 
-0.01216107854884972 
-0.01067516538288467 
-0.00404734226029668 
-0.0006940486048685691 
0.03267556931356178 
-0.006273252344904448 
-0.02572712609039517 
0.005406218604458406 
-0.005772727557336409 
0.002553848978952362 
0.001359679354719073 
-0.1178021930451615 
-0.01750197789595015 
-0.01760610853716656 
0.06243854603695603 
-0.01141116478544892 
-0.00843030811177841 
-0.002711422955876362 
-0.02402767120359128 
0.0003997769958243837 
0.0011829162254703 
0.0007798747609525507 
0.001794807291778077 
0.01101774647311728 
-0.04927600240860564 
-0.008002111790687249 
-0.002030580060446854 
-0.004510197598149414 
0.000989691805648827 
0.01394552198811854 
0.008144757634585418 
-0.004194677992610272 
-0.008288516832003667 
-0.009143533175019923 
-0.009143533175019923 
-0.009143533175019923 
-0.009143533175019923 
-0.004907127618056046 
-0.08048282544262368 
0.005850586897974922 
-0.00189134733893211 
0.009136021009174848 
-0.0009439128775768204 
0.04796394270860471 
0.002831050783334302 
-0.02181942017649353 
-0.0009051778503019319 
-0.002503351414539833 
-0.003220814867211208 
-0.007374765655051748 
-0.02443812358212877 
-0.009147071792207497 
-0.03013559812687616 
-0.01033401477154283 
0.02657500414920304 
0.02806704176070689 
0.004997908470030301 
-0.003554096031505896 
-0.007441117304690103 
-0.009718137023484993 
-0.009703629573147493 
0.01571023072579807 
0.007137094793084918 
0.008049528855505772 
-0.01168571542143656 
-0.002046498828674689 
-0.01355466999277827 
-0.007277006329396937 
0.004367827582654455 
0.01378818182166841 
-0.02172583697535359 
-0.0009671989454719021 
-0.01913961667423408 
0.03291198486422929 
-0.0324592402364739 
-0.00793218935621815 
-0.03962586074436572 
0.007727367199061194 
0.001968022315478847 
-0.002874499491371594 
-0.007574690892508109 
-0.002960475900241707 
-0.008995883051801974 
-0.003591039388157805 
-0.001970362145217502 
-0.008103392463866637 
-0.002256633947224844 
-0.001198412865607626 
0.004953527840095683 
0.06036591050353727 
-0.04193608208196246 
0.02740875559343914 
0.02599864856479212 
-0.0001245589248615663 
0.0001324562449615777 
-0.006112939689764593 
-9.096030373614623e-005 
-9.096030373614623e-005 
-0.007182682573991353 
-0.008815137607724054 
-0.01039788386458668 
-0.01103609796439174 
0.00688575021780657 
0.01524172836048432 
-0.008202067837313953 
0.0246199540967797 
0.004154492117409625 
0.007532181002430587 
0.007219879462801773 
0.01602591457860112 
-0.006015663169136409 
0.01257130436514031 
0.005746382240021503 
-0.003132707815958321 
0.01036769406829974 
0.004321986513321843 
0.008919915522228504 
-0.01492990548867607 
-0.001110372650329369 
-0.002898209713706079 
-0.02036633415250556 
0.002951574065066382 
0.001167715627125416 
0.001167715627125416 
0.01163398361952651 
-0.008462743187814727 
0.02173642177152511 
0.0006110781239224098 
0.004506075814540646 
-0.01239160345677948 
-0.0166557550291907 
-0.00111275288837762 
-0.005698795018377632 
-0.002296542572384036 
-0.007768462290956975 
-0.003514955686729218 
-0.001591012362576698 
-0.01828777108473011 
0.08359374497769517 
0.0002678739441058352 
0.02813932738388118 
-0.0001797811911544172 
0.003751191102784915 
0.03971409241309251 
0.01434981385744416 
0.0006473469390706763 
-0.002163422038316978 
-0.001794080003086319 
-0.001794080003086319 
-0.001794080003086319 
-0.001254120950288032 
0.007232462738683152 
-0.005687391495151577 
-0.02780103142461078 
-0.01583408792891418 
0.003685392356677203 
-0.004435003956936368 
-0.004309713980752781 
-0.03046573227460609 
0.005055602117160218 
-0.008474220535288809 
-0.01771429242899129 
-0.001617264053505277 
0.01395407716936875 
0.01417131731338241 
-0.02341279196495871 
-0.004057656491071877 
-0.01505260133103176 
-0.004843001078271968 
-0.01292909646927709 
0.002726884560346467 
0.01174057857955132 
0.01006571104356242 
0.009467129068659116 
-0.01657327764651933 
0.01609773226705281 
-0.01275033456415441 
0.01057416707670793 
0.02962026748641977 
0.0583234765827606 
0.001518836728850426 
-0.004219418298366475 
0.001774420585587957 
-0.008179758758467933 
-0.01260292639831317 
0.0002104116072126394 
-0.005791005894241484 
-0.003893111169660065 
-0.009689262656618064 
0.0002370133071478353 
0.01202956908489357 
0.0009880198482269502 
-0.00114967235998425 
-0.01363868162892597 
-0.007574724741360539 
-0.03398821641835209 
-0.008425065730997479 
-0.00180833613093042 
-0.007822715892848884 
0.001203295875730621 
-0.00102076302864413 
0.003701113813250466 
-0.006490497054409355 
-0.00188686137364307 
-0.002875360268070282 
0.007339915236842054 
-0.0007817940989436975 
-0.0113668081411362 
-0.005926737437483478 
-0.002515493595159469 
0.01507601162786825 
-0.001990095805553067 
-0.02218133259812809 
0.007452538390240332 
-0.005947363511498629 
0.002176238896720758 
0.006132335166931215 
-0.01324087673477498 
-0.004953697547847706 
-0.02940892224994602 
-0.01158470884025916 
-0.02125850178865724 
-0.00676314137611614 
0.001115417041351946 
-0.02813915333315309 
-0.001474892991880638 
-0.009406628326389896 
-0.01649607026662036 
0.01351394320095118 
0.001429242142988865 
0.0290931950714843 
-0.009779942998736328 
-0.001608995240741379 
-0.00656939309818946 
0.003360113505987032 
-0.001972206893965027 
0.009584443220409663 
-0.01442796674292449 
0.01839546756928522 
0.01716901975773254 
-0.03652710170303537 
-0.01241095708671876 
-0.001774023108541235 
-0.02059120202158995 
-0.0004301309804382146 
-0.01412046002451197 
-0.01245402584038992 
0.000417862057543867 
0.0009305559738066705 
-0.008754965349251862 
-0.02024126623100281 
0.0002884022821858393 
-0.005910792215389702 
0.01793571924921615 
-0.005165422204370405 
0.006259667684407234 
-0.003604544205335534 
-0.001844174320884482 
-0.02063361321114119 
-0.007575158019628549 
0.01183945462886075 
-0.003542225428387716 
0.009375396883685407 
-0.01612153852151437 
-0.008781816762912394 
-0.02274406308685184 
-0.001498867562753503 
0.0008540793851706076 
0.0004078933689856659 
-0.01205316221923291 
0.0279307389071332 
-0.03115220831808596 
0.004970626661805777 
0.002979563854607239 
0.005442512816156764 
-0.003608119368296479 
0.002180312214379958 
0.005797550959792877 
-0.008565491398536712 
0.01605932348119423 
-0.001703732033626726 
-0.01170384252738183 
0.01041265886116975 
0.00191337930700032 
0.009447698371177305 
-0.008102324785110401 
0.02254866909160398 
-0.002546913660560373 
0.03320546184765752 
0.01221571935770486 
0.002366357191755655 
-0.06279068346460148 
-0.01033260920237542 
-0.001670684119097875 
-0.004897709809086881 
-0.005769497816119166 
0.004522201160404091 
-0.0116021859434318 
-0.002705190590080962 
-0.01182406400160134 
-0.002194134768338529 
-0.002300557536457949 
-0.008409896024081435 
-0.001370647044016012 
0.03214299899196355 
-0.01380443478810285 
-0.01259892335480763 
-0.00431426168623293 
-0.02577622501749191 
-0.009813341693147454 
0.003087343906910793 
0.00445414591473124 
-0.001130716415155163 
-0.0005823182138644084 
0.03748719569353877 
0.05736295136696346 
-0.01074233980858089 
-0.04575042605580286 
-0.006013624003923071 
-0.003289268570964904 
0.01419876794814865 
-0.0112347758443615 
0.00221667158637115 
0.00807529533204112 
-0.007623237615505195 
0.002275987904508269 
0.03188816455117324 
0.003634304186225851 
-0.008859374059332709 
-0.001745033388988283 
0.0141362890977369 
-0.005796188998039945 
-0.002624948016991135 
0.01258927833331209 
-0.008714831530315274 
0.01591059742686202 
0.0029568293887894 
-0.0004498315347215751 
0.005762131142442057 
-0.004795577831696454 
-0.001616212388850815 
0.0198430884987348 
-0.004128280699941855 
-0.02003785365903655 
-0.05459720002022224 
0.008284514185623548 
-0.002875845342222354 
0.001274241290313798 
0.0027063599946947 
-0.0007126687925109117 
-0.004181750329357068 
0.003432271460057366 
-0.004253236149886275 
-0.01168501988743185 
-0.005226710165599975 
-0.01142127837364648 
-0.01242176170528571 
-0.003339810928848797 
-0.003208272237386138 
-0.001384909585846898 
-0.004472954868597069 
0.0045855402184527 
-0.002086442820143466 
-0.01605427762531171 
0.02165899510170887 
-0.005396869074142625 
-0.002282135003880788 
-0.01571304039529713 
-0.00112751395962458 
-0.001240773646846948 
0.01013953504121662 
-0.009061712210299175 
-0.01449161900877362 
0.02991979245877224 
0.004225938281827295 
-0.005973748665641667 
-0.004963540983778691 
-0.001650511107672136 
-0.002411034270211131 
-0.003649686366995275 
0.00286966792907875 
-0.01172277755867911 
0.02524439525734824 
-0.02137393844737514 
-0.01141430136128907 
-0.01339538367079839 
-0.01412521241525003 
0.009603678100673401 
0.06126582253565173 
-0.02218081724557526 
-0.01305105542172854 
-0.0005245004055714092 
-0.01303395982446547 
-0.001631700968634011 
-0.001398251424228861 
0.003084703841374352 
0.01061760608975747 
-0.03204986416480551 
-0.04344230622780603 
-0.0004093723463764472 
0.002002778603949539 
0.0008362655300704396 
-0.001639384620956475 
-0.0001066664298105591 
-0.007882043325486554 
-0.001302904044610822 
-0.002790482193544212 
-0.006323424114310454 
0.001678517144454375 
0.009610812940300273 
-0.006089182257616324 
0.04475038228737475 
-0.03320494434491921 
-0.003016248364359344 
-0.007528971975299296 
-0.008290891004158595 
-0.04401565906187705 
-0.01558373597500241 
0.004765621811097485 
0.01482950640998359 
-7.821550371036478e-005 
-4.963629735387041e-005 
0.01288998301263659 
0.01350375856578252 
0.02104132043898926 
0.0008192348032321096 
-0.002184410366940138 
0.004038068383940019 
-0.003923951221554697 
-0.006997710167274603 
0.00672842730195593 
-0.017223821272879 
0.02245811372874783 
-0.004554872207465465 
-0.00299261688977563 
-0.007076157245944218 
-0.009752031847222693 
-0.0005617322833342221 
-0.01650311537957759 
-0.0009106065730468093 
0.03526651045287575 
0.006901365937775585 
0.002509908030584465 
-0.001812685697169264 
-0.001445711222407401 
-0.006678451690881914 
-0.006020390003214796 
-0.003736018476548288 
0.01431713938638058 
-0.008042716403013841 
0.002581725945037635 
0.001446813825910017 
0.04585420761082363 
0.001088839499641117 
0.009735270677945008 
-0.01525312489980794 
-0.002657331607597504 
0.07411109393884849 
-0.01797036917412022 
0.001110288916323723 
-0.006737234824692038 
-0.003295869432695059 
0.01309238827432523 
-0.01578803018556591 
-0.006985858958978056 
-0.008540768583821754 
0.0143902412843302 
-0.01384371837158671 
0.01745079443934752 
0.001241091280683986 
-0.003696908607466434 
-0.003696908607466434 
-0.008373472463791254 
0.0006088959102485229 
-0.01552615031972151 
0.01826070419829961 
0.01204414884842415 
-0.007247932291553194 
-0.01193215986175446 
-0.001270678714058515 
-0.1478100289778421 
-0.006341316989246068 
0.004032819059356319 
0.0009400237377627624 
-0.001378400265650735 
0.08350821639874988 
0.0561678329599159 
-0.01394651869217663 
0.005887295623168417 
-0.03425359102397216 
0.003202158345477584 
0.003369844773753903 
0.02836884242395016 
-0.01040523785910742 
0.00615631909998938 
0.003221971005175058 
0.004421741454668355 
-0.00484662085544604 
0.005778735113575169 
-0.004238293499568962 
-0.004286432032115141 
0.02311391987495194 
0.02319417618062639 
0.02319417618062639 
-0.007018458573058169 
-0.003030400287706876 
-0.002322622635228035 
-0.004202448976234344 
0.00642247914444869 
0.01339225712145352 
-0.01937203697732938 
0.03399098678201663 
0.006618793514959477 
-0.0007805428332341928 
-0.002608278912684679 
0.001599926205809472 
0.02802086125045444 
0.01438753051371622 
-0.00792541809920843 
0.01847999920956625 
-0.003427069104225013 
-0.001094489738725799 
-0.0004376162201490907 
-0.003998162283997586 
-0.01232473320125747 
-0.01216685531066011 
0.003161166006889414 
-0.006525208213795705 
-0.003431383198158967 
0.01055163423990902 
-0.02826944505508905 
0.0117459904076596 
0.01435701822118283 
0.002556606402662618 
-0.007978604440783209 
-0.006723018008458115 
0.003249497108303926 
-0.01364012117062837 
0.001267657847163777 
0.01567027547033592 
0.007722805908600824 
-0.008525585143438414 
-0.001229591631379109 
0.003260195661340031 
0.0187898044980525 
-0.006142970209537357 
-0.002840908905292202 
0.004872120721513324 
0.004940810054919007 
-0.005591942559929574 
0.02946546337007708 
0.01553218475895869 
-0.001989847483638496 
0.0003383462073278684 
0.004351638364514972 
-0.002650069875050955 
0.0002953578272074893 
-0.007864984052948458 
0.006098496878000958 
0.004114852618163124 
-0.01614344672733658 
0.01228108928877382 
-0.005578647762649146 
-0.005787181123388818 
-0.005787181123388818 
-0.005787181123388818 
0.01595547172468307 
-0.004250367637644234 
-0.01290095451015006 
-0.002309692433086201 
-0.002309692433086201 
5.274522993994007e-005 
-0.001387937577920063 
-0.007729594319056629 
0.003809792925582403 
-0.006281081227470352 
-0.0004074580585154146 
0.0001089984408402338 
-0.005359752744953251 
0.02259393637930921 
0.02609310710767313 
-0.001292246158868524 
-0.007579648720810626 
-0.01189415611131729 
-0.006438047169277691 
-0.006032996116175673 
-0.01574719034855209 
0.01048299457775347 
-0.0008375687237472572 
-0.00401279905341668 
0.01106682725337252 
-0.01368021218681979 
0.07416794290598668 
0.0003571278755105725 
-0.02161395877566906 
-0.003316748415092049 
-0.005845203270769984 
-0.0006966775493838066 
-0.0004650449273940699 
-0.005490824328519058 
0.01219427663720994 
0.01775677279649896 
-0.005831097869582475 
-0.001343042061472091 
0.0116321621879962 
0.008687063427571798 
-0.001918885728762081 
-0.02179188117781472 
-0.002528979157075866 
0.0280007292272191 
-0.002991037634177221 
0.02228455102456512 
0.000922724477731032 
-0.006897923936675252 
-0.006314582624643951 
0.003069836845997344 
0.006892532731008908 
0.00911036904020197 
-0.007222961617899059 
-0.0009398468388974539 
-0.0005798864084796854 
-0.008344796773205182 
-0.003917774882284427 
-0.003477421050009129 
0.03085241307187838 
0.09455592044307934 
0.0002642511195323264 
-0.0005769325654281287 
-0.01070049535610918 
-0.006978732396423108 
0.1093077958163093 
0.01176016253995113 
-0.0004909771484638777 
-0.00409260162123682 
-0.0102374213863715 
0.006527087712244651 
0.009884235381028365 
-0.006545867336469165 
-0.006545867336469165 
-0.006545867336469165 
-0.006545867336469165 
-0.006545867336469165 
-0.006545867336469165 
-0.006545867336469165 
-0.007111357726260031 
-0.004855028993385378 
0.008272547715325972 
-0.002095231519941591 
-0.002095231519941591 
-0.00350102500059407 
0.03130934513344548 
-0.0008078643150313002 
-0.003962025085482802 
-0.00363393395747832 
-0.02128265598434216 
0.01382686453059182 
0.01437558604789211 
-0.0003810813628911916 
-0.002411932675516411 
-0.01451821214575795 
-0.003074033582291268 
0.0294299832693466 
0.00686348767364485 
-0.02143736854352177 
0.003762421636884073 
-0.005167027572152201 
-0.007339985774190031 
-0.01591652889162537 
-0.01591652889162537 
-0.005305570698802231 
-0.003287875136971415 
0.001276884387710539 
-0.002064215824851503 
-0.01139183872436465 
0.005499469800858319 
-0.007719878105279277 
0.01116930413035392 
-0.004570387933250464 
-0.0001143145665256424 
0.001050838419848944 
0.0001254271751498582 
-0.005381121547287685 
-0.008569923250408361 
0.006378064635780922 
-0.03026328129222713 
0.001687606457454269 
0.002868105004490775 
0.003109430016597119 
0.007200043774491725 
-0.001948692003632214 
0.001323881549288504 
-0.00389770124609506 
-0.006538621601831537 
-0.01475025562915792 
-0.004116354371052089 
-0.002756616333855993 
0.0004625985341712416 
-0.01575009043171869 
-0.001873336256936057 
0.01743249943411039 
-0.002621037815545556 
-0.001249525217216673 
-0.004377600864755697 
0.009686230448289998 
0.001059127011524965 
0.0004198051337042094 
-0.004077348927761179 
-0.001300708173062631 
-0.001300708173062631 
0.0002036595672371075 
0.002903455229818224 
-0.004319190052076791 
0.007372226913716556 
-0.0001426289001074398 
-0.0001426289001074398 
0.007693328376330869 
0.006127207823269728 
0.007977659268957309 
0.01013526853953743 
-0.002721625503392124 
-0.003600922045947625 
-0.001710138890118197 
0.01778730288810731 
-0.001283255908456813 
-0.007657112551613599 
0.01570865633477162 
0.005022801856979152 
0.008351059994545338 
0.004364496123872931 
0.001148131044147251 
-0.03025603006319784 
-0.006486975528572334 
-0.01550439438051161 
-0.001433543469980336 
-0.001071665183229527 
0.004761094523719528 
-0.0136701304449242 
-0.007027409997482555 
0.0127959870500407 
-0.00808064509192123 
-0.004077704737928335 
0.01201787357292548 
-0.003578470419601704 
0.02151103677963274 
0.02389148240510757 
-0.002037532920059091 
-0.00363397796521639 
-0.002373707254083839 
0.002499928059138427 
-0.006668699677060384 
-0.01129754087342583 
-0.003789941411415724 
-0.002174477330302484 
-0.0151981754146904 
-0.0006765456662941326 
0.00175969638031717 
-0.006373816875707967 
0.007420594374589315 
0.00444237821905589 
-0.0005401129442520709 
0.01352655586595316 
0.008402670636119419 
-0.00958382684370951 
-0.00396472597595157 
-0.006321323890581436 
-0.009436989298419098 
-0.02048385106483187 
0.003014450044450556 
-0.003260045144694441 
-0.006765242697452109 
0.008348502670194663 
0.0004167369740560185 
0.007852946230914011 
-0.007421051749713856 
-0.002375361204162886 
0.0008084611970201174 
-0.002641481103188193 
-0.002408593812303624 
0.002211290809126625 
-0.003128300101797306 
0.004004642757948146 
-0.003501983673040052 
0.01317829638856686 
0.02268379108789434 
0.009948739215475429 
-0.002220877801197007 
-0.005040893769381401 
-0.004485627186159168 
-0.005392237759404303 
0.004077239147734123 
-0.00597779254444196 
0.03995915481196596 
0.008948557891938826 
-0.007031506849437157 
-0.001636548443542885 
0.0002772891654463895 
-0.004673584528141887 
0.0131821494977014 
-0.007256711463004241 
-0.000131660601612194 
0.003062771264454885 
-0.003788899398350617 
-0.001670106050037612 
-0.001670106050037612 
-0.007702612608012692 
-0.001540078901701978 
0.006259019686263471 
0.005219529964795053 
0.006522098938785839 
0.0009119285368920814 
-0.00165931272008529 
-0.002003453834745178 
-0.001933686492919228 
0.007794257374080621 
0.004925691808727327 
0.008484843199221711 
-0.005106246614825326 
0.01794267190861743 
-0.00175621873022601 
-0.003760246948374239 
0.006918057804163106 
0.01893344795663963 
0.02147607985387057 
0.01115086337431991 
-0.0103174681514927 
-0.006448536542235348 
-0.005337518370207676 
-0.001030299965372029 
0.01268758247781757 
-0.001508557780293134 
2.412724756239423e-005 
-0.00519102810383817 
0.006059882365819264 
0.000762478260732672 
0.002228941842062215 
-0.01857707478777795 
-0.01685494794866102 
0.00785923335042326 
-0.00340039006217498 
0.002321295227653546 
0.04740909221775431 
-0.008257053797268009 
-0.007616522982360546 
0.02815726581218044 
5.289365288312849e-005 
0.002310636423915283 
-0.00531343226873836 
0.009421143956431236 
-0.006027638029760126 
-0.002423828608510185 
0.001922803253137156 
-0.002934269495101621 
0.001604759113998823 
0.0003878550627624834 
-0.007892883123357754 
-0.00583475749523552 
0.01311803267616574 
-0.002529869405123822 
0.02472907372112622 
0.01188618387694034 
-0.005438831420383004 
-0.0003741136483143345 
0.01047952238704965 
0.01105546239985318 
0.01715190904943615 
0.0009849293942658902 
0.0009849293942658902 
0.005015070315552617 
0.0006847536556427475 
-0.006607422612963966 
-0.004376694874387203 
0.0002121029270344719 
-0.01042448500418353 
-0.004365382083501667 
0.02527235083243199 
-0.003544784516116083 
0.004045227252814167 
0.01211584351273924 
-0.001767285463571314 
-0.001767285463571314 
-0.001767285463571314 
0.0102012114730834 
0.0237237832287458 
-0.009140204067234689 
-0.001363556043473438 
-0.002437165212939537 
0.01213043818601819 
-0.003215847574647412 
-0.005936652073431592 
-0.009750477075122109 
0.009271078577652043 
0.0001432859756820221 
0.009410772976278719 
0.009410772976278719 
0.00018065552089263 
0.0004482979831192007 
0.002478791518135344 
-0.009895203558152333 
-0.009397246016435023 
-0.0009564894835676914 
0.005008291523753336 
0.0002892087216665111 
-0.008059392136569855 
0.000921446381785179 
-0.007103136028778465 
-0.002692774759220684 
-0.001827864249329145 
-0.0008626588644270792 
0.01016087634696391 
0.01016087634696391 
-0.01489257360479382 
-0.001763922431211851 
0.0003159783485355444 
0.002612892874931558 
0.0008929588855068154 
0.004846909381626817 
-0.00226725064832312 
0.0137613659322465 
-0.001861660493623759 
-0.001212799016399512 
-0.002591241162195643 
-0.002081246868700435 
-0.003668355145407914 
-0.00614693773042003 
-0.0008240112200781414 
-0.001194545906670078 
9.807457117212192e-006 
-0.002129213546362568 
-0.003978165928895557 
-0.002324498626412987 
0.03954796530516708 
0.01215504928879646 
0.005185967130126939 
-0.01074908315693513 
0.002630635293115577 
-0.02143874520498779 
0.02629725856294294 
-0.002677620772460847 
0.002247839644161693 
0.009052208730684932 
0.02564838159375767 
-0.003153020243050425 
-0.004015623573974351 
0.009327486769038346 
-0.001829207505388739 
-0.05512664270012701 
-0.002083669793785609 
-0.01186401589276959 
-0.009642523970632625 
-0.00323995362317553 
0.02205641358060747 
-0.0005171970106842795 
0.0008944846681150902 
0.005344831586843726 
-0.006630201296954578 
-0.01262749714805578 
-0.01196755349561234 
-0.005308616237818484 
-0.003856857757808458 
-8.5955344333863e-005 
-0.001696695622583256 
-0.002677166061344253 
-0.004256261525612329 
0.01769227673473046 
-0.003129671943122561 
0.01756299743599419 
-0.002928714276040703 
-0.001868500395413224 
0.07098922126083204 
-0.002632939733969775 
-0.001488872337924191 
-0.001488872337924191 
-0.004767678015232328 
0.003165549640809823 
0.0192070360065616 
0.004906402026122986 
-0.002262975131418482 
-4.871465682771981e-005 
-0.004583628612862303 
0.003224870842557456 
0.02443104957818323 
-0.01583302928011608 
-0.004422516414368743 
-0.01603119881525076 
-0.005631314964368024 
-0.00360690317505759 
-0.00360690317505759 
-0.001693904634318631 
-0.002706183249041132 
-0.003508835349103315 
-0.005576526413110855 
0.002561594740308598 
-0.002123094296058077 
0.01195101693789361 
-0.001157718057335971 
0.0002809435447491108 
-0.006797241581728482 
0.01688741885233664 
-0.002433781825039588 
-0.002185985697534492 
0.004291387412549516 
-0.004978239834648404 
-0.0008310154690274957 
-0.001812960832431059 
0.004124917241977583 
-0.003144954456222204 
0.02063873527127863 
0.01202635070903492 
0.005991491109529674 
-0.01154046310466361 
0.001735079811850794 
0.003032958583547496 
0.01617799114751485 
0.008584711001447974 
0.008584711001447974 
0.008584711001447974 
0.008584711001447974 
-0.00198441405222036 
-0.001602734091885271 
-0.008053164203954605 
-0.001793771179459335 
-0.001034627354321644 
-0.005221373722555255 
0.0008460733928683398 
0.004784720459195118 
0.01142863777305131 
0.01142863777305131 
0.01142863777305131 
0.01142863777305131 
0.01544126467516086 
-0.0005677794913650429 
0.0004038426990648882 
0.002819410580579273 
-6.916388763349889e-005 
-0.001521518283658476 
-0.01068591890988227 
0.004374718151365364 
-0.001296808950692627 
0.002024983189039404 
-0.000473806490425422 
-0.007253984541674021 
-0.003087321089997608 
0.01322877043987279 
-0.001497617497339457 
-0.004722324890363921 
0.003121409221901385 
-0.002539216067928886 
0.0009883415850113881 
-0.0006551465477875947 
-0.00163320390393338 
0.001146818631846026 
0.004844980694649827 
0.01863328656286757 
-0.001305916494645681 
0.006578699596499231 
-0.00567062919227054 
0.002204315893245542 
-0.0008310321416552318 
-0.0008310321416552318 
-0.003438373583742872 
-0.001483557184119639 
-0.004133998809647787 
0.002178513850584358 
-0.002691244816186008 
-0.006323377188056848 
0.002768404772218669 
-0.007768936762270748 
-0.002007159023559323 
-0.01348791243927036 
-0.003947748574123298 
-0.002610722972853624 
0.01225238341270336 
-0.006135895879359185 
-0.0001450151829965685 
0.004154024180963384 
0.003181405129514558 
-0.006625323570163106 
-0.0009785627494729823 
0.002136695143668315 
0.0003309470604246838 
0.0003309470604246838 
0.008654730774824671 
0.008921186765073702 
-0.00343197745423943 
-0.002494880712331711 
-0.006195618846420462 
-0.005450816745334188 
0.0004656327553779093 
0.0002737352321371551 
0.0002797671770919705 
-0.002734904802589429 
-0.001592262724147653 
0.007351218301274041 
-0.004762259051299829 
-0.01256049899571868 
-0.0002511299009376099 
-0.001457387210522725 
-0.002012987537209636 
-0.0003304265374063143 
0.04068025257920271 
0.0199961882094559 
0.05349736228796411 
-0.02402105215138395 
-0.004135935096748564 
0.005516054406520211 
-0.0006553301901461473 
-0.008814158587098398 
0.01264715270661446 
-0.007309570127393338 
-0.01493172945071907 
0.0006451944621350043 
-0.002186896641886639 
-0.001279829469781615 
-0.001778569012167436 
0.001352438664091338 
0.001692139709623285 
-0.004037499894685699 
0.0008973868306052468 
-0.005153453715404289 
0.01828971911137337 
-0.00226765559794197 
-0.005451227476273858 
-0.001465709433607727 
0.02162621436069294 
5.096017695890907e-005 
-0.001402853567380315 
-0.001402853567380315 
-0.04386242699078639 
-0.003895088973311672 
0.005907677634572597 
0.01007713600208415 
-0.004863708145893948 
0.0003528767357394465 
0.003243689359033596 
0.002245574191072236 
-0.003210392680271606 
5.209735145932539e-005 
5.209735145932539e-005 
0.002845972640736025 
-0.0001339611994368432 
-0.003086693590508708 
-0.003086693590508708 
-0.003634748113399327 
0.01430576778941664 
0.001848732205738473 
0.01450776440163415 
-0.0004147394981716292 
0.00281088402918104 
0.001005946038714334 
-0.009560207222351912 
-0.008544824208724744 
0.008918444242890783 
0.003199845729247146 
0.003199845729247146 
-0.0007856085340909306 
-0.0004620835437389292 
0.02235542337848747 
-0.0001628266124464031 
0.02863723417021721 
-0.005164066185535041 
-0.0016614106233037 
-0.000979473289822693 
-0.000979473289822693 
0.001290196948902073 
0.003176366534984574 
0.002348754177334382 
0.0003226118960573206 
-0.00280935378877996 
-0.01654363042640934 
0.03365151461734033 
-0.0122415733022213 
0.0005666374145333044 
-0.003471163923782722 
-0.03354788097704398 
-0.001413850884371506 
0.01988338921974609 
0.01941706746042908 
0.01183108079349514 
0.01750405791617844 
0.01544296551164192 
-0.0389630644190793 
-0.06490930840165443 
-0.01193230663591162 
-0.01513412152680317 
-0.001422239993497465 
0.004599952503201712 
0.01296110629520745 
-0.009429504387844161 
0.04595422036322533 
-0.0006531345241634657 
-0.0006531345241634657 
-0.0006531345241634657 
0.001777295317851962 
0.01570815186310062 
0.02612862444261763 
-0.006434278900085558 
-0.002477181991111936 
0.001565730002350835 
-0.00430482343521099 
-0.001959413613201375 
0.00195664197050509 
0.00195664197050509 
0.00195664197050509 
0.00195664197050509 
-0.004530883486611268 
0.007317207470104241 
-0.04145436277955732 
-0.01346055085871437 
0.003954748439912207 
0.01681625715599044 
-0.01052818600951538 
-0.01835589960438225 
-0.008585786744640901 
0.006936146317768002 
-0.01491882611256991 
-0.01066093833100058 
-0.01135992698398918 
-0.01135992698398918 
-0.01135992698398918 
-0.02115638112154788 
-0.02072157023066973 
-0.002328347970379594 
-0.03132148373018487 
-0.009798739553480448 
-0.01932099255728945 
-0.01636772081702963 
-0.01371428843135663 
-0.01545781121201377 
-0.01366507212969044 
0.03161988237177433 
0.06928412262976792 
-0.01689628280386591 
0.0001125617030167236 
-0.00283647123826316 
-0.0002562985179220741 
0.002622333671069376 
0.002602324357608461 
-0.00174098864731831 
-0.007817923902415338 
0.0162316710776048 
-0.001091079791032774 
-0.007985117763223261 
0.001577180213963995 
0.0009653153126513673 
0.003326219124693723 
-0.04180356057926131 
0.00548695957716842 
-0.009222620570545174 
-0.02389775599256605 
0.005165603919321539 
0.01143639080878351 
0.01771681488395547 
0.005204067182106425 
-0.0005691914692762198 
0.0005715093202551568 
0.0004645008941809423 
0.01169078975402534 
-0.0002497219463872918 
-0.002493524062301803 
-0.01158544371893714 
-0.0007802136614749309 
0.001901081478309359 
-0.03864269425608836 
-0.001590070585802179 
-0.01221804372333058 
-0.01221804372333058 
-0.01198242995561799 
-0.004533999463983106 
0.01597251337293629 
0.006517753207263019 
-0.004730598143769396 
-0.002394076498162768 
-0.006317966773781323 
-2.289638209246949e-005 
-0.0005256870323893618 
0.01897401264271894 
0.003841274739716558 
0.005881659284178499 
0.007561432934525066 
0.003321708665114889 
-0.007530064685125193 
-0.01417771480865953 
-0.003436258524970306 
0.009756027150714755 
-0.002198017099896476 
0.004382355832644422 
-0.008423666851696775 
-0.006798192270575832 
-0.005944176951341039 
-0.001892839058682535 
0.0005494068206433039 
0.0003757101922866842 
0.003588220108966911 
-0.01349049559006148 
-0.006241475015442748 
-0.009718113436994259 
0.001882911998171886 
-0.0007486882639963668 
-0.04612502308243448 
-0.004163765968251853 
-0.006086675144965516 
-0.006022703951183295 
-0.006667690229611324 
-0.005441858989151944 
-0.005441858989151944 
0.008988022643162192 
-0.003718848403593407 
0.0002876158748240352 
-0.004112372944211312 
-0.009115945779602022 
-0.0007884305430044467 
0.02252520339799181 
0.01476699937454398 
0.01369089662156616 
0.004992804090748065 
-0.01278660769520559 
-0.0003114315740226349 
0.01921636010336391 
-0.01127332385037955 
0.01080992968936515 
0.01229722836602882 
-0.0009843081803500191 
-0.001103464491228323 
0.01010753425712132 
0.0005246211778868836 
0.0005964109457871194 
0.0005964109457871194 
0.0005246211778868836 
0.0005246211778868836 
0.0005246211778868836 
0.0005246211778868836 
0.0005246211778868836 
0.0005246211778868836 
0.0005246211778868836 
0.0005246211778868836 
0.0005246211778868836 
-0.00960395069811888 
0.005543660330014149 
0.01886008494770037 
0.01016829069104502 
0.0005059138799775566 
0.001392007470394387 
0.001455917808546737 
0.002062885260805039 
-0.001294135879461898 
-0.001193794910163029 
-0.0004391973506001343 
-0.0004391973506001343 
0.003773674545617491 
-0.001258472632336648 
-0.0001045859919200261 
-0.002994776476298577 
-0.0009437895836198998 
-0.0009753039015115417 
-0.001017524715347616 
-0.007941949746026841 
0.01897854503715274 
-0.003354657126436612 
-0.001777730438340691 
-0.002403811729810659 
-0.001777730438340691 
-0.001777730438340691 
-0.001777730438340691 
-0.002124793409501869 
-0.0003773441794063629 
-0.0006446226279011785 
0.001806537852106338 
0.003242760510039422 
0.003242760510039422 
0.002617069703550797 
-0.004689669843087695 
0.006033865311854038 
-0.002284586664943022 
-0.0001443906026028754 
-0.001697119241048435 
-0.0009014959275820626 
0.02303584054242473 
-0.001747734514669416 
-0.02301520022132061 
-0.0289535754633692 
-0.00252135323601766 
-0.0101651212952621 
0.02040190274582323 
0.004717763978189631 
-0.001197123481216251 
-0.002679442127153133 
-0.0461945387474237 
0.02652682143673055 
0.004319375602536715 
0.0008770540706357974 
-0.02596805909183486 
0.00934821534935734 
-0.01670381247801009 
-0.01376834876499876 
-0.0006469998408354026 
-0.01077028166610285 
0.002671419477828464 
-0.04278289171348383 
0.001130476207028522 
-0.01397276033486713 
-0.0011164372331136 
-0.0007289806047414815 
-0.01554195165763272 
0.009595248969664067 
-0.01205808202338575 
-0.006478781859801329 
-0.00949154624465562 
0.001551202187508179 
-0.0005709427113053765 
0.006616840939976061 
-0.0001915648716210561 
-0.0006054734428863907 
-0.001444536444144783 
-0.0004061167201010962 
-0.0006054734428863907 
-0.0004061167201010962 
-0.002108076524716983 
0.02348914394871152 
0.00283328410291813 
-0.002759244645374394 
-0.007419516634815613 
0.05041322323082752 
0.03336594022687585 
-0.004014287485266411 
-0.002433845867732022 
0.02083668096689742 
-0.003186185653204346 
0.007672215734225725 
0.0008115401264150903 
-0.009676754736558667 
-0.009676754736558667 
-0.00142906024917174 
-0.00267661083909399 
-0.002719193564329424 
-0.001339371562797285 
0.004971753119507849 
0.007654518763289088 
0.003321708665114889 
-0.0142116570554996 
-0.005405908519327306 
-0.001822847956638863 
-0.01213882481682306 
-0.01870829146987905 
0.0006385719678256109 
0.007668601781661889 
-0.0122856079654556 
0.007500575177640754 
-0.001058355002809578 
-0.01966617552320473 
-0.006026821526294147 
0.005702737341976547 
-0.002171472165721231 
0.01368472014731606 
0.009738231861674622 
-0.0001742645354025302 
-0.000874008741313721 
-0.002123094296058077 
-0.002546385354857966 
-0.002221996258457322 
-0.0009049938932408797 
-0.004810489816361625 
-0.003848151360044115 
0.0007611484250762445 
-0.0001035365941035557 
-0.0001035365941035557 
-0.003519279422739306 
-0.001831853972813456 
0.0005862911711754259 
0.003081183635551558 
-0.003124226424142459 
-0.003310031979271741 
-0.008950233626812963 
-0.00873096722533671 
0.003652904149639116 
0.01363962752877265 
-0.02786161218227816 
-5.072222973080592e-005 
-0.0005080837741156734 
-0.01039316717826201 
-0.0007982996129448527 
-0.007700494471467459 
-0.01000106691206625 
-0.003997672017548777 
-0.004804011333358076 
0.008779826592621299 
-0.004296253545554811 
-0.004511098530639117 
-0.0003013872749120393 
-0.002112060961520189 
0.01099968848325359 
-0.005755025236601142 
-0.0005119637429483128 
-0.00709265821942457 
-0.00106228377047402 
0.02479987841911308 
0.002136939760877493 
-0.02284707758425036 
0.002279664874306532 
-0.002928468600404538 
-0.002928468600404538 
0.0122753391331359 
0.00214150373044278 
0.001172798340116159 
-0.002879165655049881 
-0.001133813944382947 
-0.002562907020991999 
0.0003437192781944183 
-0.006544282910146881 
0.02391335212719316 
0.02106041074343859 
0.0005895539543517971 
0.004269764680054582 
-0.05711419229134909 
-0.008098497042444397 
0.02566967080232942 
-0.002805145102614004 
0.01833962908984655 
-0.0020875617390142 
-0.003004903982533874 
-0.005559671934077573 
0.002762689677932359 
-0.0004572471546121944 
-0.01402115188030054 
0.02079590014848909 
-0.000519134635846832 
-0.0006033695116122637 
-0.03114135589142401 
-0.000149828906979272 
-0.003563661289264301 
-0.003563661289264301 
0.001962601809677828 
-0.009600863378992533 
-4.516636309397852e-005 
-0.01681029999485442 
-0.001756980927341067 
-0.005084625041342141 
-0.000787945465814736 
-0.00358065178293126 
-0.0005691723923073172 
-0.004751587830027959 
-0.008047570931001332 
-0.001767053048069615 
-0.001767053048069615 
-0.003376154109324638 
-0.002615199279585278 
0.007084089984318912 
0.005248399323940951 
0.01007762655100241 
0.0001808345966364674 
0.004035980340399034 
-0.005243431152638105 
-0.00226305075536977 
-0.004834852039339277 
-0.002412097590886664 
0.00397981399459047 
0.004364414670891698 
0.008518928395445829 
-0.002062792598755979 
-0.01195566482263563 
-0.00877217563210398 
0.001826586462969856 
-0.005155254536604871 
-0.003908261102836066 
-0.004187402503079005 
-0.004187402503079005 
-0.0188190121687874 
-0.002678978609434989 
-0.006505861159820609 
-0.004996090791181109 
0.004628204555868747 
0.02070856867915923 
0.003826023045491928 
-0.01794069480074933 
-0.01635583504862301 
-0.0001924870543871758 
0.02237459631222415 
-7.528603140821781e-005 
-0.01326793065730284 
-0.03358719736191707 
-0.008951816223485478 
-0.001729902909303958 
-0.005742440774199417 
-0.001411783310848099 
-0.002620418630488622 
-0.01297883434386466 
-0.002837222681087443 
0.005375522955449122 
0.007336965004684309 
0.004935964444128638 
0.004836829446831828 
-0.00223261046073326 
-0.001389173088789241 
-0.002360566442062918 
-0.001151706850709037 
0.0005198189226514507 
-0.001272106349187944 
-0.001272106349187944 
-0.001272106349187944 
0.002562826122268461 
0.01074429598276715 
0.02936368217091135 
-0.003577861246046683 
-0.0187440630240341 
-0.00477028697818399 
-0.0006157557910758632 
-0.0006157557910758632 
-0.004821663702454578 
-0.0005842447189881131 
-0.005154098878402467 
-0.002865445230539158 
-0.000919236770400945 
-0.01264035633912594 
-0.0004934881939969569 
-0.001044126256661637 
-0.003658229536810154 
-0.001793600224289495 
-0.001793600224289495 
-0.0007814277527755843 
-0.002260616035395324 
0.01421628347442577 
-0.001116819044906226 
0.002076130375800334 
0.0132401496600869 
0.00356467667205099 
0.006553778725324502 
-0.0006538278036456487 
-0.0006538278036456487 
-0.002105997432090884 
0.009575247565166558 
-0.00221386988679967 
-0.002016403958066073 
-0.004210353787788574 
-0.001283903401612316 
0.001691315341897314 
0.01849858701273266 
-0.001780651786916346 
0.0105024733895526 
0.004623468577838733 
0.009786674533447585 
0.003661938811686108 
-0.002895542413318111 
0.002628247435728516 
-0.005191351655165995 
-0.004083226728053843 
-0.002495100832503146 
-0.003445185866955791 
-0.002495100832503146 
-0.02213200647514304 
0.00547899399398547 
-0.002028841912571454 
-0.006851287966644095 
0.006521220726024659 
-0.006120956055442668 
-0.004367615699393728 
-0.006209806068229062 
-0.0003874251028094811 
-0.0003874251028094811 
-0.005040956609344675 
-0.002034521835662457 
-0.02808247619675443 
-0.001275013922778673 
-0.00071263414737701 
0.027625370054125 
-0.003962394940442284 
-0.006020734017625159 
-0.02267975022861994 
-0.004384667472982911 
0.003553059536799211 
-0.0002486635253717677 
-0.008693631964327112 
0.02614800802649681 
0.03993630271503047 
0.01056050464211842 
-0.03022085465814573 
0.006723295851668272 
-0.002144194470334138 
-0.003248740052692383 
0.01725419674399893 
-0.0009241349379905227 
-0.009830563889366737 
-0.007032497199486787 
-0.0008679929355129637 
-0.001526739036866727 
-0.005222436213088471 
-0.0001427167636814459 
0.02703012886424584 
0.02065858977082987 
-0.006901412414577961 
-0.009516639288638941 
-0.0003583716479925262 
0.00137954469448095 
-0.0006966989472974611 
-0.002131809476999617 
-0.001068598616376029 
-0.001544405935863298 
-0.0003137705517863446 
-0.0008105111523527087 
-4.482881220094247e-005 
-0.001795613490187284 
-0.004297252871858919 
0.0008788768020038784 
0.01716326182817711 
-0.002665900675019184 
-0.002276488434166213 
0.00497450794524659 
-0.02032823193526964 
-0.0006452584209410673 
-0.0009818206900661321 
-0.002517542692577636 
0.001070093061628199 
0.004033940524635194 
0.004033940524635194 
0.006188580955273783 
-0.00419856269873443 
-0.007707601100334518 
0.0005087935655586965 
0.002124025276627199 
-0.007197638677684646 
-0.001350244821355786 
0.007350137500923719 
-0.001570337045591178 
-0.00109384822597597 
0.02398065554120441 
-0.001337584574769219 
-0.002064877409559745 
-0.0009002906754056262 
-0.0007755818417325615 
-0.001215863671478955 
-0.000770869891292727 
0.001119819141177379 
-0.0005320555372871339 
0.003742669659602725 
0.009187482229817587 
0.008428288367518674 
0.02328995676269872 
-0.004384116073341824 
-0.001961453250275318 
0.002657581291993376 
0.001279337764396959 
0.01196913204337904 
-0.005710782829051769 
-0.001893561778469719 
-0.001426366979234302 
-0.0001519075221889478 
-0.002714307507341276 
-0.002833686792540206 
-0.002178302759573154 
-0.0002818903271065701 
0.05388945896962732 
-0.001338489981615632 
-0.01568522421927544 
-0.00494596825564783 
0.01276903976812099 
-0.02658456259568227 
-0.0007949884765651687 
0.002634424730430032 
0.02678190203642343 
0.01774476730670791 
0.02779575820683107 
0.02668126301130384 
-0.002530077137640126 
0.01152229532128162 
0.005956574156402274 
-0.01389621310639052 
-0.009656355507254412 
-0.004067780831855126 
-0.002329232240700227 
-0.003728644661951084 
0.009304394332708386 
-0.001729803925673514 
-0.0009146298662739547 
-0.005581888090142854 
-0.0008765365361238792 
-0.0001583697091232732 
0.009039792781006584 
-0.0006595569261577362 
-0.0005760982525465521 
-2.432253627853212e-006 
-0.0001337599234592324 
-0.00109947134105766 
-0.001689278914271419 
-0.001696181495471412 
-0.001059083899695491 
-0.0008195049793958054 
-0.001167995126350959 
-0.005616208637489066 
0.01074110436650183 
0.02944333444611023 
0.009630837941567829 
-0.006706947443199131 
0.001712000628573987 
-0.001168282219903156 
-0.0008696446788348527 
-0.003707925871738394 
-0.001209949441276321 
-0.0002604011864357043 
-0.002116766328612999 
-0.005922510550609724 
-0.009775503009746292 
-0.001776050820702024 
-0.001959371509456115 
0.03949126585594069 
-0.002517708150388082 
-0.003014449788250335 
-0.002892824927556042 
-0.004428474007429109 
0.003257695048636813 
-0.001262760746940254 
0.0003324780369930338 
0.003750186367869805 
-0.0003232747890735969 
-0.00109360999387082 
0.0002826338632452558 
0.0003451800781521471 
-0.001553505859711309 
0.01743358471392111 
-0.009974556287847347 
0.01419061180592161 
-0.001475316727476701 
-0.001661986255407017 
-0.004372604500005709 
-0.007997319929588888 
-0.0002702925747836159 
0.0158922667060174 
-0.004355022280991054 
-0.0005598339102145172 
-0.0005598339102145172 
0.01132099561631699 
0.0002369945304007839 
0.004713273083655188 
0.01178013144775517 
0.03079684407307623 
0.02170509934200985 
-5.934655714984762e-005 
0.02335826266472161 
-0.004895580982436012 
-0.01169590661131114 
0.005395257225724145 
0.006056883613842815 
0.0899947325393777 
0.08735085781416738 
-0.004402230245830942 
-0.0005039585114818472 
-0.000958391444216791 
-0.004605675194530867 
-0.0005809294309242949 
-0.002889968954409824 
-0.01688245533855343 
-0.02575442761416768 
-0.003434287112699794 
0.01692983349013646 
0.005418847037360065 
-0.005574561299495628 
-0.002647749186005201 
-0.003406775135848946 
-0.001446846185082531 
-0.001713795869255917 
0.01035747302926197 
-0.006055819304747107 
-0.003602539147925048 
-0.0001500494365334875 
-0.0006426079556574805 
-6.126452894217187e-005 
0.004342237604429359 
0.01626931563889169 
-0.003691507995838052 
-0.003691507995838052 
0.0002784082340701201 
-0.002289238899401084 
-5.928275036903199e-005 
-0.004065621437197397 
-0.002237102586312903 
-0.004815869582490754 
-0.0006620941036723117 
-5.023123614714028e-005 
-5.023123614714028e-005 
0.01245448977687192 
-0.007345618703103501 
-0.001258512759378514 
-0.004524067823103113 
-0.006610846894092528 
-4.951750175623591e-005 
0.008879897090986046 
0.01772150470019364 
-0.002271850664243266 
-0.002271850664243266 
0.008748234730332743 
0.008748234730332743 
0.008748234730332743 
-0.0004207778037178506 
-3.618347249485009e-005 
-0.002529197787827935 
-0.003361149206893308 
-0.001855281203956472 
0.00255758791526891 
-0.0007359736297726957 
-3.358584737934936e-005 
-3.358584737934936e-005 
-0.008262219197685102 
-0.0002604011864357043 
-0.00435004799643821 
-0.006080541225856275 
-0.002884612482279335 
-0.0007748314829120015 
-0.006104489933676559 
-0.009660843172336002 
-0.009660843172336002 
-0.002394814383829745 
-0.002082147832447594 
-0.0005560164224325071 
0.003132091385788171 
-0.002702176099915217 
-0.005249602290492592 
-0.01139490882832527 
0.013014051035483 
-0.01096093296768008 
-0.0005419387238006257 
0.006827459643055253 
-0.008103903152137902 
-0.000887793186943186 
-0.003587592588643794 
0.001479967347912561 
-0.002668819696403502 
-0.0116933007875692 
0.004461291677870538 
0.02666866307968972 
-0.000554421895538253 
-0.0008402506606105762 
0.0174146993337784 
-0.004477298664351859 
0.01099043744244119 
0.007055320490127584 
0.02181453913480035 
0.03668053277676078 
-0.001022724977148869 
-0.000125862326893029 
-0.0002069550183935127 
-0.0002604011864357043 
-0.003648178035702943 
-0.002914193105265679 
-0.001506886907787136 
-0.001704971012778333 
-0.001506913806775112 
0.007652764927607243 
-0.003887922120038387 
0.0005726782527635105 
-0.01300555331977009 
0.01355724246764529 
-0.003566778661865432 
-0.003419865720467338 
-0.01642014895787966 
-0.003330392224855881 
-0.0001329904990159721 
0.04118828149489741 
0.01553437508733093 
0.001543393951649662 
-0.003475176392216178 
0.003763793835287354 
0.01978572413095471 
0.002917599122505977 
-0.001324499372831916 
0.00890552429076198 
0.01781538353111574 
-0.01592397544929403 
-0.006698446506327242 
-0.002589346445143415 
-0.01638294721000493 
-0.002589346445143415 
-0.002589346445143415 
-0.002589346445143415 
-0.007284180196578866 
-0.002521654651068374 
-0.000380088364356889 
-0.0007062535797644259 
-0.001076721156721182 
0.01179370413319644 
-0.003093742194571683 
-0.002522765498572238 
-0.003344421898475979 
-0.005036452149448891 
-0.004842499824794994 
-0.007281229744371389 
-0.001124231980284899 
-0.01753177189205351 
-0.01478119151045192 
-0.006622190670362248 
-0.003112934428282231 
0.001689678710238512 
0.02662182810396969 
0.007609800281243321 
0.01895893452797908 
-0.01386501228849317 
0.001038325463741303 
-0.008230407083818142 
-0.003849507777174705 
-0.00309563935352283 
-0.02260236996285954 
-0.002279960656620542 
-0.005715379309326693 
-0.0005423549795012969 
-0.002699883716818276 
0.02792488045105772 
0.00125062426614458 
0.007794866793395282 
-0.006963831847491327 
0.00180635657929411 
-0.0003915975237814747 
-0.002880584034209461 
0.0005874563652664944 
0.01633479872342133 
0.009144103908616754 
0.01008108011030386 
0.01116207405673025 
0.02408099357612915 
-0.001702661635825861 
-0.001019829950633074 
0.00353420067398982 
-0.00844220180119065 
-0.001735141017859233 
-0.0001334003408042515 
-0.0001334003408042515 
-0.001993427776577007 
-0.001993427776577007 
-0.01022206062411589 
0 
0 
-0.001956629957629031 
0.0006919986930624135 
-0.004922072398071574 
-0.0007673694787798301 
0.003360653038465828 
0.003684044460506229 
0.004638325631801272 
-0.00156279050919717 
-0.00796289556062915 
-0.0003438812995490417 
0.02043134060751322 
-0.004736257397952146 
-0.0210576055842148 
-0.0005135771452104773 
-0.0006784242756866771 
0.006051151306826357 
-0.0009712457284456699 
-0.004168463461607048 
-0.003702139094313776 
-0.005267777134952827 
-0.01308434153536174 
-0.001418973454476499 
0.01667454108203223 
-0.006373777057551824 
-0.02462752956124816 
-0.002903705819744514 
-0.00248143601097714 
-0.002116766328612999 
-0.002116766328612999 
-0.002116766328612999 
-0.003028075754025587 
-0.003028075754025587 
-0.002654746073647804 
0.00218712974637853 
-0.0002130437114005589 
-0.0009468608391620711 
-0.001663728021675339 
-0.001663728021675339 
0 
0 
0 
-8.571513311455206e-005 
-0.0007586105377109083 
-0.0007586105377109083 
-0.004878519933623435 
-0.001684972805227718 
-0.001952822284160224 
-0.01227246207587578 
0.005395391843833954 
-0.005581340431776377 
-0.001455132751191945 
-0.0002545331660719771 
-0.00462830635537045 
-0.00477267535902692 
-0.002529573042276623 
-0.006614449079642662 
-0.003127112208001145 
0.003321708665114889 
-0.008281820231240349 
0.004463942246161067 
-0.000477916631195945 
-0.0004031003305111151 
-0.0004186716489656518 
0.001808967728039128 
-0.008772745342554341 
-0.01144131817790803 
-0.007489659244255855 
-0.003187436132989797 
-0.004457630401898624 
-0.001663728021675339 
-0.001391671154990766 
-0.001391671154990766 
-0.005688523740529928 
-0.00371747347985589 
-0.001050603293790545 
-0.00129895304838353 
-0.007278868609951147 
0.008324545842427283 
-0.00781368835672637 
-0.01628130469664956 
0.009211140184179045 
-0.01450285637019427 
-0.005879147295415031 
-0.0008889429990723726 
0.03306307312487781 
0.002095882271981033 
0.008833309541399092 
-0.002220721637682839 
-0.004188991693309451 
-0.002599236053663036 
-0.009385043876612095 
-0.003812464164185811 
-0.001971073200593088 
0.004622923282380708 
0.004512658929001288 
-0.008050494062303348 
-0.01921053243408637 
-0.002755844316460015 
0.006654032001974592 
-0.001815101415922384 
-0.004296851879632957 
0.01123372797713542 
0.009633641450426391 
-0.007767071355491569 
-0.001339557066132023 
0.001604817413904787 
0.003427092478000417 
-0.003923113924174217 
-0.003923113924174217 
0.01606939835459198 
-0.009275132281347841 
-0.00484304043366904 
7.240510973997177e-006 
-0.005486084971704373 
0.01274580730270333 
0.000187365603851106 
0.002271631687676218 
0.003376212699886805 
0.003671024611242032 
-0.009173413435459028 
0.006540594676644389 
-1.168956128168265e-005 
0.01293028294080081 
-0.005138732629271193 
-0.006020371151368237 
0.03401028329392287 
-0.002753991739567239 
-0.0007141037474184362 
0.001492473540263654 
0.003388159890199296 
0.00362543221983683 
-0.002783020030003505 
-0.007656037567582836 
-0.005106972596284032 
-0.005851437749413234 
-0.001122488494479255 
-0.002497033824762374 
0.005734807626763564 
-0.0004513547030436045 
0.003109615181656045 
-0.006311083508890039 
0.007624264335560595 
-0.002397870652546669 
-0.01515294895079117 
-0.003719223334740518 
-0.00147309539024942 
-0.0003513746976475306 
0.01090590076827287 
0.0003070483416513525 
0.000418557572720478 
0.004627372376153903 
-0.003118409423149785 
0.02401777356833111 
-0.002063851383433776 
-0.0004277407446655089 
-0.00133127133298293 
-0.002566843878941291 
-0.003177420391471719 
-0.01270572091519358 
-0.01355163900417021 
-0.004085146904359152 
-0.0008238001497185563 
-0.006940687892842757 
-0.002742741985263213 
0.005541369916254518 
-9.679672317419741e-005 
-0.00749615971424933 
-0.0004836229935870783 
-0.0004836229935870783 
-0.01095944276571255 
-0.03182450697764244 
-0.01389883237073354 
0.0007168920631122616 
-0.0029922838421822 
0.02528165801153458 
-0.0009862888152131441 
-0.0009862888152131441 
-0.006562051882333313 
0.006932218595761442 
0.001775506046642922 
-0.007197815951688367 
-0.003158011572308665 
-0.003877722250810879 
-0.00563542767426656 
-0.003937542933403909 
0.002432326582763408 
-0.0008543539515934813 
-0.02703840762312882 
-0.002076476882646075 
-0.00183133434286304 
0.0001246930829045648 
-0.003226232762802048 
-0.01014262004857875 
-0.003258408351221545 
-0.003258408351221545 
-0.0003716353452680347 
-0.001254763461532939 
-0.001921522986181548 
-0.003493404026411938 
-0.003493404026411938 
-0.003493404026411938 
0.0154622021908628 
0.009933344547496144 
-0.002700969202538294 
0.007434743263157428 
0.0006898178953948942 
0.006025622264141866 
-0.01600900370103802 
-0.003210571242744962 
-0.004624036024262538 
-0.02824293478979945 
0.01123660951954418 
-0.003039373157908029 
0.02435769413967398 
-0.0007690275822698475 
-0.00648792129750195 
-0.004711774299888717 
-0.005431436626178648 
-0.005587053443441351 
-0.005019778520669044 
0.0006339532026677448 
-0.001683748167520767 
-0.01003643753232663 
-0.002006389453934872 
-0.006711419340439734 
-0.006268544982385972 
0.0009120008767409193 
0.005362930282093575 
0.01403271157500519 
0.003866997705548873 
-0.0005883597820875831 
-0.0008043389401696234 
-0.00669597922914965 
-0.01351630655450874 
0.01358665310241942 
0.006720025791921244 
0.01332254723623519 
0.02653413210968117 
0.00929610833035374 
0.005304102094489578 
-0.003092525572953202 
-0.00485975893064969 
-0.004546471626083858 
-0.0006745980122219166 
-0.006309206064616314 
-0.0009884103921073608 
7.138646542186663e-005 
-0.003086106268021555 
0.006857912912807601 
-0.005217282724015359 
-0.007795222917531783 
-0.001705469736074 
-0.00217310422313694 
-0.002112577415724049 
-0.003317343331733255 
-0.00649542067277803 
-0.0004566502233435329 
-0.02316198825384334 
-0.002196916219041532 
-0.0007626209146638349 
-0.003643099209134809 
0.02195452104120534 
-0.007184805400434878 
-0.008649041669266746 
-2.274969418757558e-005 
-0.001044100755874604 
-0.001869113672436008 
0.005499468389126172 
-0.02744844712327748 
0.006232158523477571 
-0.007598819429085545 
0.009095494138936622 
-0.01163328988633945 
0.001349369785750822 
0.003165299496342048 
0.02700614373835659 
-0.005056066228558235 
-0.006134263150680974 
5.398869799549526e-005 
0.02473144865811066 
-0.005956988642961764 
0.025807163581583 
-0.0005938211659920516 
0.04452687564558378 
0.009949770404587168 
-0.0046030314583094 
-0.0009607002136985822 
-0.001523949174408729 
0.00665163911947656 
-0.006266046383013867 
-0.002977422540177271 
-0.006206444535952174 
-0.009897686614720517 
0.0001072375347237336 
0.0006963741283441457 
-0.004272295846518923 
-0.005066059285131441 
0.01501516308985402 
-0.001579292538278906 
-0.001429588387883263 
-0.001429588387883263 
0.02046684368480356 
-0.0058013986365697 
-0.005902957583159308 
-0.00304359790639513 
-0.001450588216739864 
-0.01415868041387699 
-0.007227130707695752 
-0.00385211010866571 
0.01345763652100589 
-0.004040308800866515 
-0.001725143162763731 
-0.001375151714441514 
-0.01068776755969556 
0.004114166725174151 
-0.005593834283996427 
-0.001932667674906928 
-0.004246111339564368 
-0.04527142210650283 
0.02959450364291811 
-0.008625158876165792 
-0.003523320656107542 
0.001746074126297587 
0.007808353220768403 
-0.001610062373544994 
-0.01181077313837501 
-0.007577852887226988 
-0.006362343425217648 
-0.005997095885057885 
-0.001612859050736765 
-0.006723400242769097 
0.001897148507969902 
0.00156193161414108 
-0.004609799051081983 
-0.001513012607199621 
-0.001910162022969764 
0.0005705608117565534 
0.00395604574176179 
0.02727019460447977 
0.02486208588623313 
0.01192807812975333 
-0.00273934323783106 
-0.01384968928194116 
-0.0001148239819710174 
0.0005243301293513615 
0.003617273349346784 
-0.00353203009213585 
-0.0002465860866235993 
-0.0001556915651056296 
-0.01024970590148696 
-0.0003278063119890202 
-0.001227346596187473 
-0.0001022879258427362 
-0.000869514429831193 
0.007797810484712125 
-0.004781487308636752 
0.04508658539057923 
0.004629447995600733 
-0.000174266109587304 
-0.0007975769630638748 
0.002913675562758778 
-0.004437567123525978 
-0.007823776996259991 
0.0009519305178299206 
-0.003941064861555234 
-0.002922030176731444 
-0.003661207174608726 
-0.0004323805686479515 
-0.001989524180350193 
-0.001565296866771678 
-0.00383058017112469 
0.0007064155624209907 
-0.001730783004509637 
-0.0007839230411959052 
-0.0007839230411959052 
-0.00316210763508227 
0.0002355551895215295 
0.00496988966895017 
0.00496988966895017 
-0.004994716878361668 
-0.0009837715835355684 
-8.599335232132025e-005 
-0.002919329577717914 
-0.004121740753321141 
-0.00269114823358459 
0.002661263252853817 
0.0007252405032211305 
0.0001294277300711084 
-0.0105988220784335 
-0.006648661455216508 
-0.007700804210499141 
-0.0001969119677139113 
-0.0002172164990388235 
-0.0002908381112517412 
0.006532634947177139 
-0.003384611190559537 
-0.008313968206351802 
-0.008313968206351802 
-0.008313968206351802 
-3.947689511291295e-005 
-0.006245484330460157 
-0.0001348923559563826 
-0.001255395383607834 
-0.001488079891505568 
-3.451771035028135e-005 
-0.004439768344143089 
-0.0002147756273868174 
-0.003459799810217157 
0.002475259555083074 
0.01095057057694485 
0.009294199219777442 
0.004847626411102356 
0.007006262739973413 
-0.01112133877281881 
0.02419932468107639 
0.0006910221504813597 
0.02885164204473972 
-0.01553661861565176 
-0.006332903385465544 
-0.003915962481234781 
-0.001442119878494234 
-0.001442119878494234 
-0.001442119878494234 
-0.001442119878494234 
-0.01879707471519772 
-0.007729084433870326 
-0.03243367190811564 
-0.008198512591033498 
-0.00082993563077835 
-0.001864750983528762 
0.0003825606676310267 
-0.001941932945222858 
-0.01814075563838634 
-0.002091613704796643 
0.004145808267745866 
0.0120844042263858 
-0.003132150881705882 
0.001267830712761467 
-0.001032947425119362 
-0.003129212340539583 
-0.02039025928731295 
-0.01578406351990163 
0.003087824593852922 
0.00281009649869955 
-0.002266097520861574 
0.005192313608114652 
0.0006236008380044174 
-0.002007087348311189 
-0.0006860810321662358 
0.003353098732974326 
-0.0008215410870180768 
-0.003919398259883428 
0.007644766015182614 
0.002870882484548954 
-0.01408750153602553 
0.06144986255820367 
0.01462326247114297 
-0.0001499162595814773 
-0.000253025524982371 
-0.004388266490527229 
-0.004874292612606027 
-0.003763592996747818 
0.01394592628188714 
0.01772684635338531 
0.01078981665783105 
0.01088266147748676 
-0.01033493794220677 
-0.004257480445117263 
-0.0005447690952567927 
-0.004298630050425107 
-0.001397317028849553 
0.04838856887688785 
0.0001912306375345364 
-8.395158878890469e-005 
0.004900259848308676 
0.01268002683794964 
-0.015139915743961 
-0.003716227189839778 
-0.001094612091584614 
-0.001942067679702144 
-0.009475549337764837 
0.001120925662218058 
0.04030767307720844 
0.001138143393069838 
0.001138143393069838 
0.009498655700360273 
-0.009348013581120069 
0.03217455032373965 
0.02373048423949258 
0.002959055988150741 
-0.004220119204998063 
-0.002140463380840632 
-0.00166489205480196 
-0.001297459745079484 
-0.001965352187627511 
-0.001965352187627511 
-0.001965352187627511 
-0.003023743471174134 
-0.003023743471174134 
-0.001412281549891831 
-0.008351991585586459 
0.002098593336158743 
-0.03212342453939534 
-0.001754130689833238 
-0.003872475882214311 
-0.000321453868029172 
0.01561508299918387 
0.0129537230906751 
-0.0008936569529439075 
-0.0116779091006397 
0.001726334421463641 
-0.0001216967301779855 
-0.000280916365689347 
-0.001398535321184656 
0.02667457096842041 
-0.0004943760212276324 
-0.008713541943632479 
0.005563440760517759 
-0.008656594566173856 
0.007611801620059381 
-0.007363335440432982 
0.02620287900266794 
-2.265030705640286e-005 
-0.0004289263715605561 
0.004140882058842563 
-0.0004289263715605561 
0.009019185931411603 
-0.002463315178390633 
-0.002795518887679122 
-0.006189917546258828 
-0.00652523895298828 
-0.01807171928285995 
-0.002483280343895711 
-0.003561019250118116 
0.006945153428870743 
0.00698504585310156 
-0.001465377029446879 
-0.001874623903904441 
-0.003736891818205709 
0.0004642648774653978 
-0.001872159948945899 
0.001112073391316779 
0.002658518837621218 
0.03562019979523271 
0.0212806931033294 
0.01997727577332951 
0.0140086704568827 
-0.006966281045355447 
0.02488121792834817 
0.02510864587992874 
-0.002150518768436442 
-0.001050796753656522 
-0.001500666307737263 
-0.001500666307737263 
-0.001500666307737263 
-0.001500666307737263 
-0.004390442406835378 
-0.002057242462329736 
-0.01461688174453506 
0.01817317625226983 
-0.0005666675513605107 
0.0006135588828828144 
-0.00404810261425625 
-0.005481470262732254 
-0.0002204634316420496 
-0.001114791684248201 
-0.00287886010587727 
-0.00287886010587727 
-0.007124526050155837 
-0.003924657339818432 
0.02827755248321563 
0.01462421219263114 
-0.003169889361976949 
-0.007216634542788211 
0.005737136368934074 
-0.03769906991701924 
0.01187751561341025 
-0.003043355996511924 
-0.005445647996944012 
-0.002929889212148094 
0.0166809894419948 
0.009822603993659872 
-0.0001475365767825954 
-0.0002624848055501872 
-0.01645136776009912 
-0.002146372560413804 
-0.002146372560413804 
-0.001800336488049678 
-0.005655202146744211 
-0.005169974307775753 
-0.01219817403477687 
-0.01289881526209591 
0.003383257491660247 
0.01294790829405792 
0.04310086596382099 
0.009104805023347309 
-3.788134840048882e-005 
0.02671992028244774 
-0.004611171487959077 
-0.01871415756505934 
-0.000596591023190483 
0.00634600036521364 
0.01237376658918753 
0.001190016235143292 
-0.0001381409528766567 
0.0001798366320929697 
-0.003977816986952498 
-0.001518533160477106 
-0.005978856696676754 
-0.005978856696676754 
-0.005978856696676754 
0.0280618389540693 
-0.000540728298658971 
-0.01829178866500298 
-0.01910641812412174 
-0.005967611409827111 
0.0218660678506822 
-0.01068756581622847 
-9.516869676463272e-006 
-0.007448307810307921 
-0.006032530562304802 
-0.0008699664573686714 
0.001740302765564267 
0.01403621082543635 
-0.001557292042500664 
0.005406395201373272 
0.001949633184184618 
0.004346099712265639 
0.02809231600571086 
-0.009818949955010082 
-0.01288760745716021 
-0.0009218028237473443 
-0.004049560475490293 
-0.0001827778206763046 
0.001413073555291592 
0.01888590745210148 
-0.006990151932288091 
-0.002325474984576884 
-0.0008693103592441835 
-0.004151627328439181 
-0.001121550799208744 
0.0002159211844226061 
-3.557932914591026e-006 
-0.00039789460540175 
-0.0003419808277516825 
-0.006568974985073698 
-0.0005413049283976947 
-0.01704822249049402 
-0.002009864604714506 
0.001677986350884548 
-0.002614910639202962 
-0.003094301401027568 
-0.004502439064259471 
-0.008182119686698072 
-0.007919859884424799 
0.000455646006524065 
0.0218274638431866 
-0.002749810101493634 
-0.004344669923207348 
-0.006959540820524204 
-0.0008525819984690088 
0.0125221058483904 
0.00140369838701194 
-0.0007444298331836493 
-0.002822649475083951 
0.00981132483992285 
0.01949744177822551 
0.01188633299148826 
-0.007935057761423144 
-0.003323607774524709 
-0.001414718335763871 
-0.001702661635825861 
0.008982857846822682 
0.008982857846822682 
-0.001743645935472762 
-0.0004900224063822526 
-0.002881190739836803 
0.005578448274961402 
0.005578448274961402 
0.005565552447175411 
-0.0004119164465535992 
-0.003865027785973094 
-0.003865027785973094 
-0.001832533024599067 
-0.001832533024599067 
-0.0001758210574707791 
0.003460718089537636 
-0.001702661635825861 
-0.001702661635825861 
-0.001702661635825861 
-0.001702661635825861 
-0.001702661635825861 
0.01504555645719457 
-0.001811659492301287 
-0.001106892200243773 
0.002266707810878495 
0.0004228666163697712 
0.01115053502109261 
-0.0008086004762723485 
0.004135904252906333 
0.004343890458417982 
0.004135904252906333 
0.004135904252906333 
-0.001107021096069871 
-0.000723409390452677 
-0.008268134420209674 
-0.0007599786288626196 
-0.0001880314807303142 
0.001362604567471823 
0.001362604567471823 
-0.0002604011864357043 
-0.0002604011864357043 
-0.002879422789051402 
-0.001957006720144844 
-0.001500128578676219 
-0.001229638992838743 
-0.00228194387845325 
-0.001661423947280518 
-0.003975691678779906 
0.0006499561439195066 
-0.001405170610728785 
-0.001347910954538254 
-0.0003096849969249093 
0.0003002478217341483 
-0.003221346747027263 
-0.001219189946738111 
0.005440805454669391 
-0.001445849322741499 
-0.004890726437520834 
-0.00550858143858097 
-0.002738517264008943 
-0.00424710341341715 
0.001880842640024199 
0.02223365841540426 
-7.98387813775249e-005 
0.0219905522020086 
-0.004636359268474766 
0.001377589007536994 
0.0001534066535856095 
-0.0008000027068298859 
-0.0004507145368829655 
-0.002363670123897217 
-0.002793686327770612 
-0.002793686327770612 
-0.001552996078895782 
-0.003546882422156895 
-0.0008346555364363373 
-0.001714534945983918 
0.003406438372642563 
-6.938626003245357e-005 
0 
-0.003416726276359933 
-0.001600209955111264 
-0.001262877080597425 
0.01996605866491266 
-0.003273500310636407 
-0.00603584560087316 
-0.008802320666545132 
-0.0001488656901538481 
-0.001569983640742786 
-0.0003506004850199319 
-0.001735018297649503 
-4.950635382533544e-005 
0.003935198632109192 
0.005711238153219263 
0.005023111804040946 
-0.001783409792139758 
0.01636452134396244 
0.006477282534082584 
-0.006263352164582411 
-0.0008096758298827239 
0.01507450505568461 
-0.002414615122359351 
-0.0007570194584811827 
-0.0001842541237057929 
-9.782920749794809e-005 
0 
-0.004093496859066672 
-0.004093496859066672 
-0.002440481419490397 
-0.0001559386040994992 
-0.001770691807222351 
0.001678773566141819 
-0.001190792926165804 
-0.0009620032219549356 
-0.001080169490887413 
0.006249375429275953 
-0.0001230370494006691 
-0.0005859233695516843 
-0.0005174508636500945 
-0.006083089341322123 
-0.0009261026605016527 
-0.0001249141861895785 
-0.0007889220863951104 
-0.001586036424855927 
-0.001772097447907082 
-0.001595315952641161 
-0.001613776806222155 
-0.001708347622797713 
-0.001179287649932198 
-0.0009124059496441119 
0.0128604546278539 
-0.0002136488033561205 
-0.005441115807280483 
0.009445169388374834 
-0.001902843765688376 
-0.001153822291759735 
-0.001153822291759735 
-0.0005728867143314025 
-0.001153822291759735 
-0.001153822291759735 
0.001145262034200493 
-0.01599939242060748 
-0.01109794535662358 
0.00713742693961322 
-0.001216833689869846 
0.0003014177175161056 
0.009765285064250465 
-0.00174640028453867 
-0.007472889426345578 
-0.006046527672267375 
-0.005869227858970053 
-0.002656854157212431 
0.003704152894045592 
0.003704152894045592 
0.005826949472495049 
-0.002115384303932987 
-0.008777737661766002 
0.003891134889285696 
0.007444513462461718 
0.00992255248594682 
0.001146922459232011 
-0.003397531295616021 
-0.001058865904469925 
0.00339786083067341 
-0.0007514701599777109 
0.01750013702477478 
-0.00163368958175561 
0.01956748608306139 
0.004641384778400826 
1.721789142863542e-006 
-0.003542579753501226 
-0.009711608102663435 
0.000607017908355239 
0.02365870151201006 
0.02208913796623685 
-0.0005838455839825092 
0.001108944847221802 
-0.0009352324392572192 
0.01250655569129035 
0.00428674315704238 
-0.003981789066367031 
-0.005785445612396786 
0.01744886721391564 
0.0009392489372662731 
0.004541527064679985 
0.004215944635792216 
0.004434523710169083 
-0.005287539344163722 
-0.02019151088457837 
-0.0003904023457627916 
-0.001425327756044472 
0.03039327426624696 
-8.463722715376819e-005 
0.01040777658092318 
-0.004517697495187907 
0.01265106577568959 
0.0005389713181619057 
0.0007824957328561716 
-0.005082968149921835 
0.002297259875621596 
-0.001995744392740815 
-0.002710059823726495 
-0.002357758800017751 
-0.00907227096633317 
-0.00907227096633317 
-0.000922764205155863 
0.001802538604079224 
-0.0002026954888947452 
-0.003560208339671525 
-0.004469441609300945 
-0.007338448928963771 
-0.006828704947768926 
-0.0007737412476635034 
-0.00177851638735185 
-0.004716079637327296 
-0.01241807494839263 
0.03538062024650712 
-0.0003126302834436438 
-0.0006695077774689846 
-0.008249709957942176 
-0.001921698522171701 
-0.007978790324614146 
-0.003534503697936188 
0.003144545794807407 
0.003144545794807407 
0.003144545794807407 
0.003144545794807407 
0.003144545794807407 
-0.003775024686322614 
-0.0005981604023105563 
-0.0008428682429334121 
0.0004582156217350982 
0.009498333343473789 
-0.002589419272243948 
0.01877461930031354 
-0.003417829741616853 
0.00274111560862758 
-0.006389446920219828 
-0.00103766828911279 
-0.01464303421134941 
-0.001577933592482546 
-0.01000196414294771 
-0.003752801707466845 
0.004413283190027634 
-0.0037991387471827 
-0.005310183999226131 
0.01375235826977438 
0.01818508525221855 
0.01675886075745131 
0.001133942396046484 
0.0004142536033814938 
-0.003304498052030481 
-0.008747070888006322 
-0.001147607183944952 
-0.002170810328846764 
0.001681176998348664 
0.001681176998348664 
-0.01014543270839398 
0.001023879162603836 
0.0009660346749675303 
0.0006533091500486135 
0.001339019110910329 
-0.001370667680638604 
0.001715554813840047 
-0.0002964799560578946 
0.01779206090035644 
-0.006072592808186041 
-0.003143741588979842 
-0.002692037437235349 
-0.0003010430142237253 
0.01909655702688579 
0.003667880262148512 
0.00631421428030945 
-0.003317342813977078 
-0.0004353187234393443 
-0.007141247153214691 
-0.0101292939329729 
0.001750827613196754 
0.007713322438830661 
-0.0003784064378486424 
-0.0007743349936249292 
-0.001054925294388918 
-0.0007743349936249292 
-0.003669013736374356 
0.004395647798300898 
-0.001702661635825861 
-0.001702661635825861 
-0.001702661635825861 
-0.001702661635825861 
-0.001702661635825861 
-0.001702661635825861 
-0.001702661635825861 
-0.000873454687994416 
-0.001909146680178672 
-0.007391832276084183 
-0.0003929188893108537 
-0.00124805532476712 
0.0156425282769327 
-0.001055545011963697 
-0.0008978110657647455 
-0.0008978110657647455 
0.0174502543958923 
-0.000957562395370233 
-0.004694704475157465 
-0.0006362747563914258 
0.01682125789746375 
-0.003913555948243981 
-0.006180997948649286 
0.001359481449036892 
-0.003664791983316951 
0.00176688745425012 
-0.0008965041017464962 
-0.0008965041017464962 
-0.0008965041017464962 
-0.001168522812472754 
-0.001669470210123523 
0.003964713053130137 
0.002043359855700304 
-0.006722881884470689 
-0.005893067667318637 
0.001093163835130451 
-2.872659029005905e-005 
-2.872659029005905e-005 
0.0009645304357655147 
0.005206779879423095 
-0.006110452960093819 
-0.002134992579349848 
-0.002576893666017594 
-0.002367666558545663 
-1.922571338672669e-005 
-0.001339271137767123 
-0.002619851233730088 
-0.002619851233730088 
0.01311477356339272 
0.002633576072405704 
0.007123668289154064 
0.0002481230153063912 
0.001670801476173756 
0.01940226118843411 
0.02241979235548157 
-0.004250993457207552 
-0.003439290583302137 
-0.004438762228447495 
-0.001231816292839032 
-0.001498521570873566 
-0.006960003493011281 
-0.001231816292839032 
-0.009836725456086933 
0.002092257490048134 
0.006197142572983992 
-0.0002834706707765058 
0.004676913847088159 
0.004522871385687293 
0.01341572442051471 
-0.0005656414475214376 
-0.007291114038158106 
-0.001738519340406209 
-0.0009645163847703145 
0.001087602968657018 
0.01976942689265783 
-0.0004080352339679206 
-0.008986485083785384 
0.006738544478148941 
0.0008772391169954442 
0.0008772391169954442 
0.004498654275426011 
-0.009017470711494662 
-0.009350611179886739 
0.002435579915743745 
0.007563042832355978 
0.0132269500866226 
-0.00614835148331749 
-0.005070944625666941 
0.01125892096349569 
-0.003178885887542786 
-0.002187818051926588 
-0.0001155889154824323 
-0.0001155889154824323 
0.002652322862545009 
-0.0008994633481493309 
-0.0008639266848871491 
-0.0009566989101011976 
-0.0001454093377837891 
-0.0006178679320089019 
-0.0003616644408777029 
-0.0001274583903736693 
-0.002513707810528592 
-0.0005256195093371653 
0.001188771142126319 
-0.0007724315991257518 
-0.01586576693578562 
0.00504520216549386 
0.006267966113057054 
0.003393936855798539 
0.003027635348769237 
1.122610191915913e-005 
-0.002161566681962905 
0.01964396355770219 
0.01608083120609348 
-0.006576178220544711 
-0.001801598275959543 
-0.001801598275959543 
-0.001801598275959543 
-0.0014867609484666 
-0.001904728906559484 
-0.001904728906559484 
-0.001904728906559484 
-0.007547425614307446 
-0.0005321238821969108 
0.0009662422406373895 
-0.005242206731280073 
-0.007014155950736001 
-0.004452600274001522 
-0.0004589274799465406 
-0.002333806152381975 
-0.0004185173869753496 
-0.001133100675704932 
-0.001133100675704932 
-0.009268578783696769 
-0.001318313924628128 
-0.01019458076179689 
-0.0008602671261588382 
-0.0007868094481111107 
-0.0007868094481111107 
0.001745932816209836 
-0.000504582488014994 
-0.01065379306514261 
-0.0001333422430849225 
-0.008643316786371527 
-0.003076455170398809 
-0.0007692679277600313 
0.01601575955039196 
0.001358249535611525 
0.005869021295815141 
-0.003721581483962616 
-0.003093563847089564 
0.01255633101121167 
0.006831536737115462 
-0.001552620806961482 
-0.00479694395344489 
-0.000295633612899978 
-0.000295633612899978 
-0.000295633612899978 
0.001180518193113957 
-0.01009332800387949 
0.0009568431239252332 
0.009056674000290626 
-0.002438547041736598 
0.01105276109952379 
0.00503935503612265 
-0.001368405782440802 
0.01159542307126192 
0.002086401034874231 
0.004488310374842335 
0.00612242246998948 
0.006922298961345041 
0.01646428681647389 
0.0008315667895631247 
-0.008114163140249146 
-0.004453017402009667 
-0.003698003233752122 
0.007673151191554564 
0.0001938966679585897 
0.001119195336816424 
0.001259132989430009 
0.001259132989430009 
0.001259132989430009 
0.001259132989430009 
0.001259132989430009 
-0.005369324807189886 
-0.003594241338135748 
-0.001565946146896133 
0.01237250223800731 
-0.0007908035575444864 
-0.0009089579917801227 
-0.001302414294149176 
-0.0007736488371212113 
0.003044765141801747 
-6.234970197565144e-005 
-0.0002638735995800969 
0.01875794613203528 
-0.004055851924743551 
-0.001584115464163281 
-1.811418881186302e-005 
0.001348104947481069 
-0.001876380053722237 
0.001319929916778074 
-0.003537080893532967 
0.0008637936867633806 
-0.0005092705297197009 
-0.0001997436242717686 
-0.007199243879242735 
0.006491839252615064 
-0.001938061126290873 
0.004323716644994414 
-0.002901323870834878 
-0.002920565543179432 
-0.001351342195992812 
-0.006877620612524456 
-0.01379548377605304 
-0.02455619447332239 
-0.006877620612524456 
-0.007065782295013562 
-0.001063037225254162 
-0.001760609195001934 
-9.65581789067142e-005 
-3.548265752503232e-006 
-3.548265752503232e-006 
-0.01002689824782659 
-0.003039617978712002 
-0.00653515670671531 
-0.00111352818188872 
-0.001446358280156426 
-0.001446358280156426 
-0.009896994601073707 
-0.003353552566185866 
0.003559451796572846 
-0.001996329985165708 
0.003414372633594915 
0.01597176116050032 
0.01405731630759385 
0.03854947588755873 
0.004584591549454059 
-0.007598015877826809 
-0.01649361034006095 
0.001229519360307604 
0.003043431455101262 
0.01245675517992425 
0.005084216718119709 
0.006749027977910978 
0.001276659836168973 
0.001276659836168973 
-0.01215965033084643 
-0.001116639899946402 
-0.0004510883124217582 
0.01487038320668105 
0.01598458862574791 
-0.000535566653842968 
-0.000535566653842968 
-0.003737114814108554 
-0.003504460849915793 
0.00270193127394772 
0.0008518813471357939 
0.001212767648530042 
-0.002564176406023642 
0.001926978065119472 
-0.001393450062957174 
-0.001393450062957174 
5.801011459067759e-005 
0.0098633203327995 
0.0008071649093055985 
0.005652988602949551 
-0.002635020656980163 
-0.0002494883144023885 
0.004252318322839414 
-0.008077220010633844 
0.001978984671674924 
-0.004135103084611086 
-0.001546464070889863 
-0.0005277242032803299 
-0.0008941355896576915 
-0.0008941355896576915 
-0.0005961700444876191 
0.001630109841129309 
-0.001819776617717995 
0.0008287821458810722 
-0.00176040825792943 
-0.002685923869021152 
0.007289781353856406 
0.004977059664110266 
0.003983122952454398 
0.01824481100465268 
0.01923387757194417 
0.009543283590817206 
-0.01710995979393308 
0.003099596499008718 
0.01238330791367761 
-0.00493678779573113 
0.03120220468036398 
0.005037401565892709 
-0.001513615531425867 
-0.000870216004503293 
-0.001592589090057468 
-0.0005941990227958642 
-0.002550240489647913 
-0.001841982199018541 
-0.001106334427219176 
0.007117665521427857 
0.005687862417558776 
-0.006850925379001584 
0.007282397251944732 
0.004397567293265273 
0.001164547137135157 
-0.009495638071740385 
0.002593819221413688 
-0.001335258650654424 
-0.001335258650654424 
0.002320869899676786 
-0.001680573702822959 
0.002475636293572546 
-0.003716355275671349 
-0.0001109075126322996 
-0.0001109075126322996 
-0.005391892013704406 
-0.001253992215349576 
0.003321708665114889 
0.004078696916096545 
0.002360439835421434 
0.002980179801054013 
-0.01160614824206271 
-0.001848924622623132 
0.00504581308959658 
-0.002033710786306092 
-0.000869514429831193 
-0.001680331712951703 
0.0046340276928582 
0.005932618721395093 
0.007219749419878444 
0.01126217240739573 
-0.001702661635825861 
-0.001702661635825861 
-0.001702661635825861 
-0.001702661635825861 
-1.296969579536537e-005 
-0.0004417304510997651 
0.0004279386146633348 
0.004300862034191887 
-0.001382373256849342 
-0.001635720829040137 
-0.001187031277932775 
-0.0004212594493304207 
-0.002189492673239937 
-0.0002843091733536436 
-0.0002843091733536436 
-0.001831196227325579 
-0.003515789276656221 
0.002076194189768473 
0.0009513428676257631 
-0.003915767855561136 
0.002908336611785555 
-0.0005983875006125942 
-0.001129894365670246 
-0.001808727636280839 
-0.004510171986945817 
-0.004695044231446418 
0.03015736730048287 
-0.001263964965558235 
-0.001746114956209362 
0.009161557005837788 
-0.0001057416473075901 
0.0008350688674898802 
-0.007484428956155151 
-0.005299695608547916 
-0.001376217891541 
-0.00191227744059778 
-0.005833987961260251 
0.003387741273703892 
0.002603188070992885 
0.00400418394169745 
0.006621703265588812 
0.007646977801945406 
-0.005735421087316134 
-0.000254080360697999 
-0.0005485806584886232 
-0.0005485806584886232 
-0.001431298934209894 
-0.001268315168182937 
-0.0005834205776843551 
-0.0007722785464835116 
-0.003073038226279995 
-0.003073038226279995 
-0.01952340646508022 
-0.007303351546404431 
-0.003651586408196318 
-0.008412679241898171 
-0.00462898367338617 
-0.001533280643881338 
0.004439284163674672 
-0.003058491881274929 
-0.01207486139071613 
-0.0006985014724207493 
0.008387945382093877 
-0.002075553509730799 
0.008196754300026275 
-0.00112246131934926 
-0.002030766990588983 
-0.006668161746149093 
0.009838735395400085 
0.0001534066535856095 
0.008148832946645519 
-0.003033307418271162 
-6.937319492743895e-005 
-0.006977179797702588 
-0.0124132769090259 
-0.0003365760164075032 
0.01049210275147449 
-0.0007435753262411181 
-0.0007435753262411181 
-0.0007435753262411181 
-0.001393966902868933 
-0.001634433989586365 
0.002545370351123007 
-0.0004009908644809661 
-0.0002028618241138191 
-0.001786611165229833 
-0.001317038309898974 
-0.001317038309898974 
0.005886475766564241 
-0.0003061312787848706 
0.002208523629958892 
-0.004227235477498486 
-0.001008087937806455 
-0.00716027430160145 
0.0006021498295483781 
-0.0009609316341032437 
0.0004371968472145888 
0.001666534039926467 
-0.003370249629049089 
-0.008894837561398576 
-0.0004768008421992035 
-0.0004768008421992035 
-0.0004768008421992035 
-0.0004768008421992035 
-0.0002389244096908714 
0.002325858884146771 
-0.002989911772523029 
-0.002676595635837806 
-0.001331330664724343 
-0.001496431689723325 
-0.0008980554486901478 
-0.0006142907464379726 
0.002199728321706382 
-0.004460644057793287 
-0.004460644057793287 
0.008972961291916668 
0.005708007322531511 
0.006298873684627541 
-0.007939330144229892 
-0.002876858119749715 
-0.002738293827734366 
-0.002738293827734366 
-0.002738293827734366 
0.002461677284764034 
0.01636999317253093 
-0.003965912124240384 
0.007104653624138397 
-0.002591810343935193 
-0.002897455309538824 
-0.002897455309538824 
-0.01950358373068551 
0.008845908135633426 
0.0002164051940979076 
-0.001162895104802885 
0.007653955931050897 
-0.008463834484685368 
-0.0129305496364105 
-0.008463834484685368 
-0.002415674291634676 
-0.0008957841967266173 
0.008787709799018932 
0.002082021220118455 
-0.004725413650675641 
-0.004984989254538544 
-0.0004178312403939086 
-0.00206471745809177 
0.004189821067451999 
-0.001660096666282465 
-0.001413556606710904 
-0.02174644187077098 
-0.00928105593816978 
0.002989095404184089 
-0.0002515342669937166 
-0.001285335298318313 
-0.00379657674562263 
0.001997048388027242 
-0.004670571796929741 
0.0008374191024858044 
-0.00188264564974513 
-0.004178136630848909 
-0.00112575519025714 
-0.005799868201741172 
-0.0008620149424044775 
0.0007128926764843562 
-0.001144278571776603 
0 
-0.0007936277666495731 
-0.001763954061546004 
-0.006326333549579544 
-0.001811373441238328 
-0.01456902068494429 
-7.354738970936706e-005 
-4.524160584597319e-005 
-0.0059043774136516 
-0.0059043774136516 
-0.0059043774136516 
-0.0059043774136516 
-0.002784387852010191 
0.009188966803797544 
-0.0003764931128985316 
-0.005216464957542581 
0.001952309411563307 
-0.001133093572616451 
-0.0003304265374063143 
0.0004210648546740607 
0.002253095487966432 
0.003626168589110921 
-0.003871288758857296 
-0.006873332094708546 
0.005530253118463892 
-0.002652350658000936 
-0.006088189692604739 
0.007633036548899844 
-0.01137206341523444 
0.0003341670031379372 
0.001319466542405316 
-0.005637002338835526 
-0.005399475696286926 
0.001569042469596171 
0.001183042902097361 
0.002069978779384556 
0.01839667981320083 
-0.001539015015831816 
-0.001539015015831816 
0.000874943855844205 
-0.003003206197126573 
0.01258992997810461 
0.00481119009989228 
0.0003884641472357838 
0.0003884641472357838 
-0.002113430351424548 
0.0009618290595290154 
0.02040046970555869 
-0.01105714879054939 
0.006267290876210216 
0.006267290876210216 
-0.006521444665529737 
0.02141459209947807 
0.04191104956538579 
-0.009768027832478913 
-0.007809125466251895 
0.04673139865172647 
0.004070577957303286 
0.02795432460007443 
-0.008474845806734762 
-0.01156439430607319 
0.02408430320136684 
-0.001509307004805808 
-0.007962317812971676 
0.01254765297892551 
0.009417993652843492 
0.009033276791755054 
0.01128968937100183 
-0.007083832812215407 
-0.002531869065537107 
0.01804148521315652 
0.03827079528469997 
-0.004087424039473125 
-0.001800777713593851 
-0.01838916055509214 
-0.002032651902383038 
-0.0006173925068925535 
-0.004859436959103483 
-0.003929448082435985 
-0.002716120495562579 
0.0008484868653021463 
-0.002354422327873289 
0.001768041677066776 
0.002952484099601072 
-0.0002314249936553742 
-0.0002314249936553742 
-0.0002314249936553742 
-0.0002314249936553742 
-0.007835256909619552 
0.005230535801705537 
-0.002744846851130576 
-0.008378576625891317 
0.00570162329787184 
-0.01188852519996334 
-0.0002020753868453294 
-0.01637417339630687 
-0.005700476727622438 
-0.00272276932048807 
0.001783615062825686 
0.003669827216359638 
0.004323820860733764 
-0.002675412600697783 
0.01678748160046418 
-0.001423988953840372 
-0.01373722992233197 
-0.00589377804471152 
-0.001210575943807011 
0.001849937932207274 
0.001849937932207274 
0.009888447117593433 
0.0009832854783338163 
0.01092714179724601 
-0.0007387050371709464 
-0.0007387050371709464 
0.001068517445483478 
0.001710681807006261 
-0.005933673597177373 
0.0001280900922031143 
-4.271202397813931e-005 
-0.01325424670455129 
0.004288328706481852 
-0.007916362623755896 
-0.002456185638686916 
-0.001098788098262356 
-0.002729647175991876 
0.01443170933719377 
0.001272016973194054 
-0.01307566481588422 
0.007510584074970336 
-0.001667402265028655 
-0.001227140313332825 
-0.001941278943897513 
-0.0009032414490605019 
0.002005944382732147 
0.005425855133031202 
0.004649109810212488 
-0.0002299032187213749 
-0.0002694317359090085 
-0.001054880901121421 
-0.0005612351020566566 
-0.00517167119798208 
0.005956579840989047 
-0.002253190806996309 
0.006897040337052867 
-0.001609811004724982 
-0.0008754110500859322 
-0.001876007088309085 
0.01651807738054646 
0.007658666875975799 
0.009778557587753175 
0.009778557587753175 
0.01233608337733221 
-0.0004990443366123534 
0.0009861606129017511 
-0.001711122371251002 
-0.0006301222357167274 
-0.007552993458294864 
-2.445144406018864e-005 
0.0005056370031537966 
0.00394885906149266 
-0.0004315829661055053 
0.009417695687937546 
-0.004934218800365092 
-0.001060233559090693 
-0.01064109895005095 
0.004351489323916791 
0.004351489323916791 
-0.01276456316962686 
0.004007136818092287 
-0.009193272593899999 
-0.0008281115493951791 
-0.006331469672176238 
-0.004103623383930399 
0.009055513427675434 
-0.0001349926299078992 
-0.0007167550053474037 
-0.0007438841582468899 
-0.003779565447064259 
-0.005347512467285061 
-0.003983771280489407 
-0.002407223944171527 
0.02362235518800714 
0.002650853159451655 
-0.002295646938101175 
-0.002295646938101175 
-0.003521058712869607 
0.004989105788321859 
-5.142391958422869e-005 
-0.0003010430142237253 
-0.0026647336610636 
-0.004483114662935361 
-0.001683807038268537 
-0.008850566077994761 
-0.001294805692532253 
-0.006146667074844707 
-0.005172286572187291 
0.000916861972162778 
-0.0001424801365276107 
0.00141978895277548 
0.00206801978917603 
0.001773270333696794 
0.001773270333696794 
-0.005477452662751667 
-0.002524394792911141 
-0.002524394792911141 
0.00412168143487476 
0.0003416268495477625 
0.0003416268495477625 
0.002824575640366692 
0.0003416268495477625 
-0.00174090241907288 
0.004955739367066926 
0.009937404963177448 
0.006826857965453023 
-0.00192582029212654 
-8.599335232132025e-005 
-0.001861354342082191 
0.003951276998611866 
-0.001797258806918196 
-0.001797258806918196 
-0.01088429234892015 
-0.003605599251833811 
-0.0005886392580971423 
-0.01122159390814811 
-0.003410055795874669 
-0.008518995704312018 
0.0093207878075384 
0.01489122343147547 
0.00811309313791659 
0.0009804811488597111 
-0.008338286330348341 
-0.004279648199648322 
-0.001447703756431796 
-0.0007566074775814181 
0.0002041488616087899 
-0.000337556613295277 
-0.005682362076152345 
-0.00501250239562882 
-0.005614320172844446 
-0.001467570396819496 
-0.001467570396819496 
-0.002196556811973394 
0.01485927447129 
0.01112424833451559 
-0.0001775649310627136 
0.0004638289918254178 
0.007101104745021477 
-0.004927282139386163 
-0.001907318741891371 
0.007651496236279245 
-0.001725143162763731 
-0.02940633350497716 
0.004625613822912482 
0.004750961408481313 
-0.002682638677389951 
0.00559148988910768 
0.00559148988910768 
-0.003658416808879714 
0.004242626573434849 
-0.008607275265606602 
-0.0008723089365275102 
0.005411004199548897 
-0.01145622046041017 
0.01191454896447771 
-0.0103104998511966 
0.0100001461220734 
-9.433603198517032e-005 
-0.002352050702754553 
-0.001073129493573968 
-0.003350356303670435 
-0.002304530349675799 
-0.001818887812616651 
-0.001818887812616651 
-0.001818887812616651 
-0.001266875564778323 
-1.612619407822599e-005 
-0.02139234361590433 
0.004841927384295591 
-0.002374988116337622 
-0.003205082813714194 
-0.007667803963708563 
-0.01322709672000409 
-0.003686091409020164 
0.004869895730902644 
-0.002681097975961211 
0.004869895730902644 
0.0007000969473605688 
-0.004006266602981429 
-0.001942448275311819 
0.01963872337431514 
-0.003012364734073599 
0.005119408055316462 
-0.001986446199124174 
0.005032824187498027 
-0.002794690657671879 
-0.0003896040940356132 
0.002974867927899835 
-0.005250022069823722 
